,0,1,2,3,4,5,6,7,8,9,10,11,12,13,14,15,16,17,18,19,20,21,22,23,24,25,26,27,28,29,30,31,32,33,34,35,36,37,38,39,40,41,42,43,44,45,46,47,48,49,50,51,52,53,54,55,56,57,58,59,60,61,62,63,64,65,66,67,68,69,70,71,72,73,74,75,76,77,78,79,80,81,82,83,84,85,86,87,88,89,90,91,92,93,94,95,96,97,98,99,100,101,102,103,104,105,106,107,108,109,110,111,112,113,114,115,116,117,118,119,120,121,122,123,124,125,126,127,128,129,130,131,132,133,134,135,136,137,138,139,140,141,142,143,144,145,146,147,148,149,150,151,152,153,154,155,156,157,158,159,160,161,162,163,164,165,166,167,168,169,170,171,172,173,174,175,176,177,178,179,180,181,182,183,184,185,186,187,188,189,190,191,192,193,194,195,196,197,198,199,200,201,202,203,204,205,206,207,208,209,210,211,212,213,214,215,216,217,218,219,220,221,222,223,224,225,226,227,228,229,230,231,232,233,234,235,236,237,238,239,240,241,242,243,244,245,246,247,248,249,250,251,252,253,254,255,256,257,258,259,260,261,262,263,264,265,266,267,268,269,270,271,272,273,274,275,276,277,278,279,280,281,282,283,284,285,286,287,288,289,290,291,292,293,294,295,296,297,298,299
🥳,-0.03927411,0.042381678,-0.036243893,0.19974361,0.06678513,-0.12190102,-0.12512882,0.025105454,-0.049659576,0.17556538,-0.09231573,0.06970918,0.17801803,0.039407343,-0.2437058,0.10452883,0.18847628,-0.18473046,0.12513646,-0.18467186,0.016956415,0.16189022,-0.28008765,0.0018025201,-0.27302262,0.03736489,-0.067204,0.021096535,0.02980732,-0.06116888,0.21427593,0.0074238237,-0.045762606,-0.08104028,0.2643636,0.03623549,-0.01690031,0.16330765,-0.09607088,-0.23695134,-0.16622487,0.05111698,-0.024340417,0.009206992,-0.04520983,-0.06731168,-0.14832532,-0.032626092,-0.19589299,0.23642953,-0.09062899,-0.04671285,0.111112826,-0.2641055,-0.021029705,-0.08152606,0.22370957,-0.0066611567,0.12439799,-0.032406166,0.060143,0.02973678,-0.06718294,-0.08622508,-0.07042625,-0.10437801,-0.076407306,0.048616372,0.011119448,0.049717307,0.11489503,0.20659204,-0.19296336,0.16451879,-0.16050296,0.16055948,0.06633251,0.08329161,0.09600772,0.24008027,0.177932,0.24266733,0.109005,0.060452063,-0.06618165,0.30979407,0.02433461,-0.0093645975,0.17108288,-0.026481282,0.054588065,-0.20471062,0.19207427,0.02581445,0.3432806,0.16614458,-0.15858802,0.17682853,-0.017463388,-0.22343774,0.025196478,0.13100857,0.10671979,0.05696686,-0.21752247,-0.28754103,0.033254426,-0.011194108,0.240696,0.04896322,0.039953552,0.14507553,-0.2701387,0.11246436,0.06984339,-0.15524271,0.14446709,0.018458739,0.059108164,0.048954632,0.012994373,0.014200816,0.011592385,-0.117929004,0.01784112,0.044629447,0.115061544,0.31728342,0.121320866,0.024473485,0.22103393,0.04647172,0.024812149,-0.23892711,-0.05588736,-0.0035247183,-0.0196612,0.16546415,0.33179832,-0.14077416,0.059021667,-0.058155455,0.20533492,0.008290877,0.014104649,-0.14214924,-0.12981394,-0.019114723,0.038528368,0.04093392,0.043002877,-0.080082804,0.02015286,0.045981474,-0.03138221,-0.27104107,-0.09655911,0.38234657,0.16980769,0.007266019,-0.21136536,0.025544139,-0.09112305,0.0967497,-0.033527866,0.06662942,-0.018431226,0.31938753,0.02994169,0.006030592,0.3238826,-0.047269072,-0.13789193,0.0625719,-0.09007928,-0.11453806,0.16145578,0.03931258,0.10755662,-0.16804324,0.0438857,-0.0238319,-0.06209683,0.0423336,0.24208106,-0.0034729405,-0.14087082,-0.04110283,0.033649802,-0.116087265,0.061837878,-0.25840893,-0.03773105,0.16478202,0.4025178,-0.0016563116,0.056242164,-0.054985855,-0.083714604,0.06728717,0.17601466,0.13089943,-0.03532013,0.005089256,0.020580098,0.047702186,0.08923401,0.13350223,-0.041966364,-0.16354418,-0.062226336,0.023971569,-0.005843104,0.07614623,-0.43359092,0.10704647,0.18122551,-0.27124006,0.0109812645,0.12380874,-0.18677446,-0.024885956,0.22389446,0.01556888,0.028226381,0.008782239,0.13755836,0.15025926,0.025178514,-0.035217322,-0.1530897,0.02225987,-0.24188007,-0.08984399,0.020713674,0.021279424,0.0981481,0.03910348,-0.08717067,-0.09457175,-0.24650009,-0.05658343,0.24589981,-0.026997082,0.050789364,-0.05132673,0.107378,-0.11752924,0.09573705,-0.07225386,-0.13122825,0.08298401,0.018392522,-0.18857226,0.19298254,-0.071773514,-0.04182429,0.012917765,-0.011027966,-0.044594236,-0.3297453,0.26346183,-0.046319857,-0.09989962,-0.18064088,-0.1723876,-0.07128023,0.039399102,-0.22954771,-0.030875808,0.07489288,-0.1793438,-0.33568665,0.16552128,-0.04732008,0.07172776,0.03810352,-0.17349048,0.06780593,0.17034526,0.113700844,0.08591687,0.058803726,0.14167246,-0.092641264,0.18189944,0.17382114,-0.37931246,-0.13486876,-0.14524516,0.019974653,-0.054401282,0.105857916,-0.056382243,0.01307865,0.32818034,-0.157811,-0.050705478,0.07240806,0.15586919
年度,-0.035444066,0.05484887,-0.050236825,0.022629386,0.06470621,-0.070142604,-0.05509171,0.15285054,0.12821269,-0.00089038117,-0.07174612,-0.067635335,0.07045032,0.03803247,-0.23993872,0.0659564,-0.033441372,-0.021263197,0.22803201,-0.13361531,-0.10953232,0.19239613,-0.17900676,-0.10192033,-0.07723276,-0.054356314,0.034806658,0.01735413,0.018304167,-0.11200895,0.16394912,-0.13572977,-0.13228968,-0.25606066,0.20412122,-0.056389764,0.17292114,0.031227674,-0.04410639,-0.3719718,-0.1643985,0.12663153,0.09929683,-0.056330264,-0.051773183,-0.17048043,-0.100703634,0.009710899,-0.27905175,0.2853249,-0.049155835,-0.011507104,0.1283192,-0.32991415,-0.14376603,0.054561384,0.011371107,-0.11279596,0.09372569,-0.035171993,0.10444753,-0.01840379,-0.045007482,-0.049810696,-0.07629233,0.033774383,-0.111092374,-0.084737666,0.14743812,-0.04314038,0.16448954,0.08783292,-0.110151686,0.16747776,-0.17203987,0.33132392,-0.009430938,0.21027847,-0.008916636,0.120214075,0.026448788,0.32983756,0.24042308,0.01723654,-0.18603204,0.1281913,-0.24194553,0.08796917,0.23714466,-0.007143145,0.1864836,-0.09538645,0.20191066,-0.050593544,0.24928014,-0.10460211,-0.23706625,-0.0022762606,-0.08703352,-0.21289481,-0.11175947,0.07379245,0.0139636565,0.022546101,-0.22219181,-0.2759096,0.031681888,-0.22238876,0.3612476,0.058472227,-0.04064024,0.0354318,-0.19630568,0.023623921,0.17120096,-0.23472895,0.13710687,-0.06366214,0.059093785,0.0017560775,0.13868114,0.019359114,-0.06730388,0.049372785,-0.05123167,0.03713317,0.16571572,0.2287019,0.020940097,-0.03984342,0.21561912,0.030609228,0.013828311,-0.24131314,-0.05334967,0.0112622315,0.05300073,0.047032595,0.37532538,0.004256729,0.044631813,0.004104377,0.1204922,-0.0034390462,-0.22723305,-0.17013502,0.03945944,0.022481535,0.070968024,0.10243196,0.15584743,-0.103131674,-0.14018896,0.027156467,0.06790992,-0.026211865,-0.16568989,0.24017552,0.1915297,0.15269543,0.09475019,-0.19182764,-0.010164279,-0.00021712096,-0.16896413,-0.053283684,0.022553217,0.4689564,0.00012873518,0.23089722,0.2846787,-0.05851654,-0.2719811,-0.086871184,-0.13207607,-0.08518173,0.20818278,0.0989513,0.052164808,-0.234708,-0.094169624,0.052488253,-0.01460422,0.01212905,0.22993396,-0.038870953,-0.22513364,0.0021635096,0.0047599357,0.008228669,0.24015865,-0.08883668,0.040806156,0.21573523,0.095885515,-0.009481765,0.057897832,0.05965814,-0.041194588,0.117440164,0.18415241,0.025662486,-0.035946045,0.013719681,-0.104161255,-0.040906053,0.1513041,0.01144702,0.027786568,-0.22045419,0.059331622,0.024196144,-0.018167969,0.2167754,-0.28307587,0.090879925,0.087843455,-0.14875354,-0.0054860422,0.120326094,-0.008982266,-0.018041804,0.22593838,-0.010717692,-0.022343885,0.036454763,0.11934321,0.22877964,0.063728236,0.07909048,-0.3043816,-0.067782305,-0.04482367,-0.12555395,-0.034781426,0.107117325,0.07901404,0.054444734,-0.078212984,0.01730441,-0.2794829,-0.12548763,0.26007918,0.041034486,0.038077492,0.027135024,0.22978228,-0.1400919,0.2484354,-0.021164665,-0.09278591,-0.006006918,-0.120398626,-0.15869881,0.09239115,-0.02481512,-0.069142915,0.1464784,0.12908934,-0.032203004,-0.04943018,0.19839287,-0.07619899,-0.13899231,0.06843533,-0.0636812,-0.037625358,-0.022158109,-0.35568509,0.18621974,0.00922439,-0.18563792,-0.33267027,0.19928321,-0.01047218,0.058989696,-0.0016570028,-0.09112988,0.14344303,0.19338441,0.025607236,0.09673839,-0.073970795,0.21826652,-0.052477114,0.08522506,0.073826395,-0.31101182,-0.094518594,-0.1298987,-0.06968422,-0.034955654,0.05403963,-0.022861594,-0.13429499,0.3922308,-0.39641595,0.007733377,0.031437166,0.091689065
盛典,-0.0013311805,0.054687828,0.0004633146,0.045045935,0.05362595,-0.085070066,-0.059843797,0.107070364,0.09031232,0.057652522,-0.07722472,-0.0075934627,0.15341173,0.036563773,-0.19371706,0.078317314,0.04410419,-0.05472041,0.06600921,-0.10136754,-0.05331283,0.07709725,-0.16166817,-0.046097986,-0.06099355,-0.05294436,0.013197319,0.021482926,0.010249364,-0.09578671,0.12099175,-0.03914115,-0.061811388,-0.10645773,0.1818567,0.04268032,-0.0008356157,0.078458406,-0.034298286,-0.2543181,-0.12789148,0.07790594,-0.0015032423,-0.03421922,-0.0042570587,-0.094843805,-0.10065532,-0.042074524,-0.2062832,0.24989115,-0.10196396,0.030338632,0.07984851,-0.21191224,0.0061390437,-0.03219935,0.10058196,-0.09133789,0.06347717,-0.06000789,0.026871154,-0.039339095,-0.08228846,-0.028106242,-0.06643042,-0.048388567,-0.019002229,0.009911623,0.13233504,0.0105896,0.14638647,0.045223862,-0.13646425,0.12150873,-0.11611934,0.18435593,-0.013115141,0.08565008,0.043251183,0.026611988,0.046555508,0.22719368,0.16033757,0.07355466,-0.10817831,0.14263691,-0.0750127,0.046912357,0.14460596,0.006238664,0.122263715,-0.17549528,0.14307249,0.038969837,0.2683748,0.054855503,-0.19682212,0.10572814,0.022126133,-0.24745172,-0.010027777,0.051419023,0.069622755,0.017430143,-0.17006452,-0.25674394,0.078044705,-0.1261573,0.28113,0.09560971,0.060753588,0.0662135,-0.18375078,0.06565264,0.07343256,-0.13306992,0.06627089,-0.00063240755,0.05213117,-0.0075672213,0.10071909,0.06974758,-0.047742955,-0.029396519,-0.021807866,0.007456845,0.072517864,0.21674578,0.028216852,-0.010626923,0.23383096,0.100675985,-0.0178835,-0.21838759,-0.06982329,-0.003461777,0.0067682415,0.03229569,0.30124596,-0.016659738,0.036965195,-0.0100426115,0.15916085,-0.009426984,-0.09680128,-0.13096318,-0.05593388,0.028178377,0.058860477,0.08391154,0.09684141,-0.055620983,-0.055840228,-0.005152996,0.011746676,-0.094105646,-0.11963686,0.21072169,0.16912815,0.115116045,-0.0757617,-0.01333687,-0.059649896,0.018120687,-0.046426043,0.06620102,0.04661896,0.32618162,0.013801705,0.12950775,0.22050723,-0.07364233,-0.23699757,0.037471853,-0.053721003,-0.026112825,0.15964839,0.06616445,0.03475869,-0.1882392,-0.0670731,0.054350957,-0.0095956465,0.03130247,0.21296705,-0.04407304,-0.18404645,-0.08063339,0.026593203,-0.053877525,0.12875691,-0.16130084,-0.07689373,0.17436948,0.20320193,-0.018110964,0.08083167,0.03774336,-0.044363916,0.06507052,0.12065268,0.069179714,-0.055952404,0.03876692,-0.026805034,-0.014837069,0.14300609,0.073059365,-0.019112349,-0.14158815,0.03973093,0.02965357,-0.0679791,0.14375971,-0.23278254,0.033774126,0.10110758,-0.17927197,0.03470402,0.07018599,-0.04929818,-0.02638742,0.15099753,0.07278519,-0.031581406,-0.058021303,0.07438618,0.16298234,0.03982929,0.03147681,-0.24059585,0.011533697,-0.098699234,-0.0983761,-0.008591841,0.09916216,0.050237086,0.043894712,-0.13377966,-0.014753257,-0.25749367,-0.1256403,0.14408949,0.027774122,0.008729947,0.048289392,0.10598772,-0.09784884,0.16285485,-0.053749856,-0.0927873,0.057745762,-0.031097075,-0.20528148,0.16678059,-0.02926307,-0.10226228,0.104195416,0.014568139,0.032753073,-0.115330726,0.14101636,-0.116455816,-0.059713837,-0.030303748,-0.09889514,-0.054930978,-0.010323143,-0.27507132,0.07536416,0.02595448,-0.14871442,-0.2259526,0.09436452,-0.012541729,0.06307201,0.012365177,-0.13228525,0.07935176,0.17959803,0.07332143,0.04643309,-0.019800184,0.15436482,-0.07529389,0.105925836,0.12150485,-0.2831553,-0.094421096,-0.1122598,-0.037399326,-0.07547037,0.028386423,-0.05328677,-0.037288126,0.30982736,-0.17687799,-0.005806595,-0.0041342434,0.10939171
正式,-0.123071246,1.1438619,-0.060073413,-0.020849882,-0.09675783,-0.10773855,-0.10803978,0.68432766,-0.19421186,0.14671314,0.33945867,0.17879,0.6980788,0.2667031,-0.7269744,0.07288934,-0.31991845,-0.55508983,0.2024193,-0.69951004,-0.0694122,-0.23102759,-1.1196184,-0.12255039,-0.72193176,0.35644007,-0.9328376,0.16988212,0.31783307,-0.58337474,0.033859294,-0.033973176,0.09800101,0.0048321146,0.70463926,0.2812437,0.3860779,1.0506462,-0.2149327,-1.3379637,-1.1354139,-0.37965447,-0.59743094,0.8071762,0.17390472,-0.68692505,-0.38389805,-0.18550289,-0.60289,0.38571885,-0.052663755,-0.11092529,-0.85196793,-1.2859418,0.5674657,-0.6967972,0.99788857,-0.54075253,1.04939,-0.21915191,-0.4431217,0.39043617,-0.2668386,0.12378842,-0.6884012,0.10747163,0.1414043,0.054023717,0.66776407,0.013035534,0.9484989,0.9512647,-0.4496491,0.080840014,-0.23946913,0.89379734,0.09334127,0.15172838,0.45738637,0.7888042,0.37037012,0.40620455,0.3891664,0.85914737,-0.3556938,0.6346249,-0.072384305,0.024522705,0.7510312,0.28702393,0.524879,-0.92946625,0.965194,0.18295588,1.479308,0.41054827,-0.3085657,1.0045261,0.109466664,-1.9010229,-0.6062864,1.0156429,0.99369353,-0.0016036613,-0.9111507,-1.0720792,0.22224943,-0.7536688,0.9631657,0.039127503,0.4546842,0.025999475,-0.5306106,0.674604,-0.6152651,0.3680106,0.2793152,-0.68201494,0.13016461,-0.25996566,0.60184586,0.19980936,-0.0772502,-0.21577948,-0.31766295,0.2349236,0.12810884,1.1834927,-0.1732853,-0.29525074,0.74868584,0.8567296,0.28833744,-0.5617874,-0.31193516,-0.9775198,0.38200897,0.33104223,0.5752512,0.8152592,-0.1885249,-0.37071344,0.8630269,-0.37930006,0.1719149,-0.3542965,-0.34243658,0.1398191,0.46578297,-0.2395179,0.19408947,-0.6160565,-0.3541583,-0.3623111,-0.41461396,-0.5743876,-0.5408992,0.6179563,1.3191574,0.7294494,-0.5668189,0.03318432,-0.26846123,-0.21375085,-0.2893276,0.62793136,0.98138165,1.2462991,-0.23315483,-0.44855177,0.3666335,0.24880542,-0.8754288,0.8089859,-0.16742261,-0.5919516,1.200873,0.07065908,-0.53567433,-1.0708883,0.038237493,-0.39995122,0.010900532,-0.41752768,0.2725793,-0.2541322,-1.1804874,-0.11046269,-0.96887976,-0.06202187,0.30664462,-0.68471485,-0.12786862,0.43708524,1.2504289,0.6171007,0.1868666,-0.21540491,-0.52566975,-0.2888876,-0.0350874,0.26510596,-0.12064626,-0.59038424,-0.68343747,-0.28887787,0.1616651,1.2145598,0.16109565,-0.42518574,0.64132154,0.63543963,0.60734266,0.36542472,-1.5058893,-0.47561654,0.6327974,-0.41188422,0.0707706,0.40072852,-0.8251517,0.8192964,0.13374709,0.19971716,-0.1396373,-0.9932953,0.6260636,0.119163536,0.60561264,-0.0027801841,-1.7341267,0.055024177,-0.72469205,-0.093444295,-0.29846624,-0.009731897,0.037377533,0.3963895,0.23268709,-0.3642679,-1.0420719,-0.15815437,0.23122081,-0.5761473,0.35425788,0.40885332,0.37900648,-0.10127303,0.41029415,-0.5569092,0.21391849,-0.6169118,-0.017833471,-0.67298865,0.6213608,-0.2704784,-0.56832844,0.6746419,0.16039415,0.23467037,-0.5559736,1.3188968,-0.014973854,-0.29435033,0.13087356,-0.91498953,-0.06715591,-0.83667314,-0.8479349,0.8635692,0.30528408,-0.24454558,-0.63007206,0.12694122,-0.92737854,0.8943946,-0.25613028,-0.78209966,0.16076285,0.047926895,0.99467045,-0.7920831,-0.19655412,0.75193155,0.19276232,1.217996,0.66727865,-1.5099949,-0.897272,-0.7880061,0.15561275,-0.29449728,-0.24731182,-1.2805401,-0.438918,1.5708808,-0.92019176,0.07379854,-0.58636576,1.1028984
啟動,-0.04800105,0.024692664,0.116308264,0.112863086,-0.14229941,-0.083806716,-0.0140722925,0.39119306,0.06475438,0.020460462,0.07547184,-0.07746355,0.3120365,0.23447774,-0.25451276,-0.09571284,0.081321955,-0.2437802,0.064358234,-0.18934388,-0.04287217,0.10552613,-0.21826665,-0.230867,-0.29635942,-0.058035918,-0.088171735,-0.054111615,0.021762848,-0.19120038,-0.029972028,-0.097764134,-0.20348676,-0.054565553,0.07197947,0.0016088332,0.017646607,0.048013665,0.124945715,-0.2413667,-0.2421963,0.38119498,-0.046544172,0.0688505,0.25985345,-0.06466619,-0.2087631,0.104923956,-0.28116494,0.31815383,0.008020607,0.11381963,0.05982563,-0.2854638,0.08088852,-0.11523521,0.2563025,-0.2349964,0.004861035,-0.06441673,0.092112474,-0.08222721,-0.1483766,-0.12563956,-0.17990597,0.039264172,0.13621122,0.041869845,0.12779784,-0.113676004,0.2341717,0.16828576,-0.13926493,0.17966643,-0.027766801,0.20009415,-0.042844124,-0.069184944,-0.021494668,0.015166714,0.044396766,0.31933245,0.121878445,0.10452206,-0.118656136,0.07042454,-0.18350783,-0.09482415,0.019889304,0.024709513,0.04336111,-0.27512482,0.12053226,-0.1227628,0.3416274,0.17933382,-0.29986674,0.034734853,0.08228014,-0.27919298,-0.007365829,0.25049675,0.026722562,0.00032499045,-0.27896345,-0.4609456,-0.07838426,-0.33759907,0.36352155,-0.048068557,-0.15730847,0.031352267,-0.20478953,0.14272046,0.014215909,-0.13309494,0.014329075,-0.2425148,0.15348245,0.0658047,0.22859864,0.026091956,-0.20614697,-0.16468595,-0.1767086,-0.18740681,0.027513498,0.37188107,0.07865289,-0.11565798,0.30222854,0.1942396,0.14787495,-0.33941412,-0.41730186,-0.11628993,-0.05777513,-0.05098888,0.38140172,0.052162748,-0.034102947,0.121902406,0.25715378,-0.114106916,0.10652625,-0.27633178,-0.04245278,0.108507134,0.04014292,0.0030868393,0.095123105,-0.0151953725,-0.053971894,-0.07134822,-0.0946395,-0.17155485,-0.2949181,0.30369368,0.1507925,0.27538326,-0.025638126,-0.07244655,-0.075081706,-0.05116836,-0.18569861,0.048256624,0.049317487,0.4267896,0.046859443,0.14415002,0.2290582,0.2446654,-0.39423478,0.065651156,-0.11626574,-0.2544848,0.37223178,0.20048402,-0.04888506,-0.33215192,-0.27241066,0.13797133,-0.16627884,-0.0145141715,0.25913775,-0.003253625,-0.3133455,-0.119710505,0.0101813115,-0.014269471,0.20231248,-0.37949592,-0.015549685,0.26473692,0.2585519,0.10139764,0.16736391,-0.014423229,-0.07601341,-0.007256969,0.3224443,0.09570462,-0.18503198,-0.172522,0.09107485,-0.028225878,0.2201868,0.105318666,0.064898804,-0.19557816,0.19781598,0.13190204,-0.0128537845,0.20911486,-0.3948297,-0.1165161,0.05602397,-0.17902587,0.07470517,-0.09266762,-0.13210429,-0.006822671,0.34891784,0.049901854,-0.20842935,-0.14394282,0.059015743,0.23581286,0.08847892,0.15717202,-0.3778717,0.010893558,-0.102670476,-0.102843516,-0.077303156,0.14163624,-0.035062954,-0.015767487,-0.2042094,-0.15896246,-0.4217574,-0.27815545,0.30506048,0.112257995,0.014035478,0.03318544,0.10237792,-0.18642545,0.24376293,-0.060460307,0.04328043,0.044336673,0.009479194,-0.23114952,0.2803475,0.08282951,-0.1981835,0.12001192,-0.13436605,0.14161074,0.0054428237,0.2412612,-0.14961368,-0.21843787,-0.05487053,-0.10202475,-0.08951363,-0.076556526,-0.47788936,0.25286022,0.27039084,-0.058628973,-0.07777531,-0.124944225,0.0045698667,0.10919599,-0.07158759,-0.24804242,0.20610379,0.019519405,0.036225308,0.06148063,0.07645163,0.12320742,0.038831126,0.19208585,0.052725,-0.39296368,-0.25071216,-0.3524733,0.05987171,-0.020654446,-0.21429764,0.04048769,-0.10217757,0.35524753,-0.21303011,0.1076267,-0.09634979,0.22486429
全球,0.023731265,0.15613441,0.22128165,-0.011342585,0.06823244,0.0031587714,0.25243554,0.37449697,0.096757285,-0.041455466,-0.15458925,-0.1976212,-0.02215682,0.20455214,-0.42793506,0.13971218,0.0050125527,-0.04622141,-0.08227215,-0.01821588,-0.1997359,0.11957086,-0.32246926,-0.2986014,0.3157957,-0.5090624,0.22908086,0.12004928,0.20613743,-0.48425195,0.09236124,-0.23956236,-0.1342949,-0.08692091,-0.14009704,-0.1987795,-0.1687435,-0.02794731,-0.104453534,-0.76913065,-0.08668852,0.5786687,0.23616157,0.030039128,0.568617,-0.290612,-0.00037125102,0.08999896,-0.17296605,0.5333941,0.012201279,-0.22437383,0.32229987,-0.22387744,0.04446047,-0.024722049,-0.07080128,-0.43002576,-0.24049585,0.12271235,0.033735637,-0.645022,-0.057466865,0.07264752,-0.13490953,0.32335377,-0.1958608,-0.24248266,0.21487637,0.09071049,0.4029284,-0.076167695,0.21560918,0.2318598,-0.2466665,0.23084207,-0.09733735,0.36667338,0.15302704,-0.38370532,0.035178345,0.59674615,0.519097,-0.19132632,-0.5676765,-0.02847146,-0.69205487,-0.23472345,0.23211874,0.15003362,0.26558378,-0.3936281,0.2763245,-0.040145222,0.4856017,-0.1635526,-0.61134,-0.22262773,0.17609766,-0.46866685,0.13647787,0.36625507,-0.24356817,0.12572357,-0.2801196,-0.5312925,-0.08002886,-0.5275769,0.4625295,0.058273505,-0.5902085,0.26672012,-0.2268804,0.075414434,0.3509472,-0.121854834,0.09864278,-0.023687746,0.2709925,0.18542518,0.44675007,0.1703287,0.119956814,-0.20898747,-0.30519336,-0.31548306,0.04921444,0.119539775,-0.13026321,-0.34975147,0.7312765,0.11582538,-0.051047534,-0.24220577,-0.40816712,-0.124194846,-0.054334544,-0.14031656,0.64626366,-0.17769623,-0.059722494,0.24407265,0.050200995,-0.078313865,-0.49116403,-0.5158716,-0.104176335,0.08647965,0.073610745,0.24203679,0.36514616,0.24190095,-0.5334871,0.018735312,0.008857524,0.14877886,-0.25131744,0.07810624,0.3336572,0.33638564,0.24617496,-0.35541,-0.15931855,-0.13047305,-0.18983555,0.129131,0.04775845,0.9033147,-0.27895793,0.4722046,0.24756345,0.09088433,-0.59642965,-0.099423714,-0.17339809,-0.06803775,0.5950133,0.1166757,-0.07529518,-0.08522963,-0.29120433,0.33402622,0.032869246,-0.084996544,0.21380423,0.18026854,-0.25082272,-0.050267734,0.40460587,-0.15106294,0.39294565,-0.17554383,-0.2941043,0.62035966,-0.009822123,-0.03061213,0.2278998,0.050002906,-0.012574559,-0.0724822,0.11738916,0.23420475,-0.11818705,0.029698828,0.07997988,-0.5100925,0.5193672,0.19543391,-0.17392704,0.074718036,0.3415054,-0.08435684,0.06414192,0.8627391,-0.3038441,-0.4489919,-0.0019474304,-0.33992374,0.04130302,0.18962884,-0.028333487,-0.14528833,0.59695023,-0.097200185,-0.07345293,-0.42617008,-0.013067568,0.5800322,0.055459693,0.121415,-0.5524184,-0.22007623,0.07093597,-0.27527377,-0.23127373,0.36176696,0.083876476,0.107405365,-0.4488489,-0.1287909,-0.46471992,-0.4070202,0.25926784,0.017317586,0.032654535,0.0022019444,0.49033713,-0.30759624,0.49423867,0.0014107807,-0.26516342,-0.033580426,0.023058739,-0.38050762,0.2541732,0.120303534,-0.29742214,0.3965833,-0.18449186,-0.03715236,0.17876133,0.17459646,-0.5456193,-0.1512254,-0.13404441,-0.032794196,-0.019541968,-0.14193942,-0.75936496,0.4179574,0.13136369,0.08785496,-0.3198031,0.10040568,0.013703922,-0.13816734,0.14016744,-0.0999796,0.287653,0.21289265,-0.15886895,-0.014237333,-0.08463508,0.07490198,-0.27610907,0.44215396,0.08805842,-0.25538212,-0.17612712,-0.44495836,-0.16817258,0.0064148726,-0.24108775,0.19473259,-0.368207,0.46488744,-0.6200631,0.40275073,0.06644199,0.071419
歡慶,-0.025429945,0.015624944,-0.07159788,0.17169526,0.1124169,-0.11798478,-0.045384977,0.12310598,0.012475366,0.09196677,0.032549266,0.046187274,0.151254,0.02423251,-0.16726623,0.04079438,0.11978347,-0.05421587,0.08032544,-0.07862299,0.05231458,0.06832163,-0.21228406,-0.00111539,-0.1619204,0.07973155,0.019205978,0.09166307,0.050624363,-0.04623939,0.17447966,0.024813557,0.024674868,-0.043516427,0.2193392,0.026555112,-0.007966455,0.061810438,-0.036083743,-0.16457072,-0.0681092,0.0020309153,-0.01242864,0.068369664,-0.14169237,-0.07161451,-0.17046428,0.017672893,-0.06662187,0.18205924,0.030787406,0.02739882,-0.009528236,-0.111743964,0.037543222,-0.026306843,0.07852501,0.03635168,0.08470716,0.06299922,0.06279742,0.07026793,-0.0016072595,0.04840304,-0.05317014,-0.02484818,-0.02361418,0.07160463,0.0983992,0.016538417,0.19766766,0.20367165,-0.19239382,0.043010127,-0.15801698,0.2145396,0.09061633,0.08523611,0.08508269,0.16778727,0.04180038,0.21453562,0.069134064,0.08530546,-0.07660617,0.17725532,0.09262186,0.025935981,0.16976954,-0.039016522,0.14279726,-0.036868766,0.11334133,-0.006094459,0.14625216,0.079842165,-0.15761115,0.078038074,-0.0024142326,-0.20537065,0.034249738,0.13020818,0.11039891,0.009328956,-0.23932567,-0.11839148,0.06501723,-0.05735493,0.22849783,0.124249026,0.028830452,0.106433585,-0.21139924,0.1717242,0.063221246,-0.091195114,0.10574013,0.039506458,0.08005382,-0.04330784,-0.0011256568,0.039043337,-0.03919725,-0.082953915,-0.02317833,0.05358085,0.113323286,0.18839586,0.008032479,0.026731612,0.1788226,0.055600516,0.04806705,-0.15906443,0.022321796,-0.060765624,-0.047567163,0.18004067,0.17191955,-0.09887429,0.095199086,-0.04492717,0.15186544,-0.009640864,-0.09415574,0.01090606,-0.010990296,0.05463618,0.0018119762,0.046447285,0.054416317,-0.06315909,0.05983599,0.06404445,-0.04176897,-0.15029773,-0.08501905,0.29413408,0.16068253,0.047400743,-0.16288999,-0.1120173,-0.02823858,-0.05329972,-0.047199775,0.03986692,0.06505816,0.28157854,-0.0044887597,0.07981916,0.22641923,-0.124827795,-0.1395924,0.04262147,-0.079423286,-0.03772881,0.18860142,0.06431056,0.10800788,-0.11201456,-0.0025929995,0.031920124,0.04778917,0.0006938504,0.20167942,-0.07079234,-0.23946068,-0.042270523,-0.13057376,-0.090873644,0.13258575,-0.16208124,0.014124375,0.17441544,0.37208384,-0.06279969,0.101616,0.010424899,-0.08596424,0.06693334,0.13921529,-8.274494e-05,0.035883706,0.018254308,0.090431124,0.0077331965,0.10859243,0.07242651,-0.058369584,-0.121658705,-0.056986883,0.0041073537,-0.075289,0.05641509,-0.32002273,0.09738817,0.26397017,-0.24786653,0.031453636,0.1833423,-0.15122841,-0.029909745,0.19559382,-0.050426874,-0.0013732987,0.03430462,0.10420333,0.12771916,0.03344235,0.003978824,-0.20914583,-0.0009942191,-0.19067693,-0.09526966,0.04475591,0.023152096,0.13777387,0.0057367785,-0.017650122,0.030302502,-0.1805268,0.016428279,0.14088166,-0.033386223,0.14374852,0.009740682,0.1024954,-0.1704428,0.10920244,-0.06883337,-0.05346767,0.046041746,-0.0075736716,-0.17196958,0.093120225,-0.07735035,0.019489013,0.088488616,0.005339865,-0.04705204,-0.24755774,0.27407777,-0.04612493,-0.07332783,-0.1758296,-0.06332298,-0.12268506,0.03150454,-0.15278423,-0.04404708,0.014634276,-0.18609059,-0.38381982,0.10903195,-0.19624016,0.09826818,0.083792,-0.2181383,0.04363058,0.17424777,0.17130645,0.11156566,0.06377901,0.115263715,-0.15415238,0.23415454,0.13640136,-0.3443757,-0.092022635,-0.083888724,0.06090661,-0.14406814,0.09525899,-0.14876631,-0.026758637,0.37076545,-0.272663,0.009628539,0.012709662,0.12951186
📅,-0.01441519,0.016412275,0.014173963,0.009619005,0.011425882,-0.03926134,-0.036011647,0.05555148,0.031684227,0.021326283,-0.03162211,0.0027145145,0.06838216,0.027547868,-0.08804047,0.023415195,0.01672795,-0.027400523,0.021079306,-0.02444671,-0.021395221,0.039096333,-0.08022463,-0.013652742,-0.035506044,-0.02109763,0.01839171,0.019676507,0.0052551506,-0.0470823,0.043568347,-0.011603919,-0.02637121,-0.038308296,0.062483106,0.01929412,0.0020538995,0.03875754,0.004346206,-0.11415321,-0.043575227,0.047681525,-0.020085573,-0.0049745147,0.008991084,-0.03752412,-0.055995494,-0.017620578,-0.07536209,0.098795846,-0.040046114,0.030188525,0.040965762,-0.090741396,0.004084676,-0.02370914,0.0452847,-0.03430648,0.011414748,-0.019592216,0.008640566,-0.021793252,-0.035271548,-0.0134541625,-0.034995817,-0.010559309,0.005443733,0.01662379,0.055663988,-0.0058868686,0.06063455,0.02054497,-0.05780771,0.042767476,-0.041913185,0.07918246,0.0030861339,0.038664866,0.0143959,0.0059882365,0.021022975,0.0843141,0.054862197,0.033300724,-0.05516614,0.06066859,-0.029885503,0.013738165,0.054236606,0.0011074396,0.03798746,-0.08270963,0.06480681,0.021542242,0.10924836,0.02245331,-0.095690385,0.032699823,0.000180963,-0.10375908,-0.0023672995,0.02674537,0.018553408,0.008371218,-0.078268185,-0.1067636,0.025192002,-0.06523169,0.11258234,0.057549383,0.0034399857,0.020733982,-0.07139779,0.031003103,0.016618304,-0.04955163,0.029419119,-0.010039958,0.025935803,-0.0073288605,0.033142857,0.018630942,-0.012635208,-0.01998363,-0.01563096,-0.0031124528,0.029340655,0.10088653,0.014003839,-0.007934171,0.09127419,0.036588084,-0.0035907258,-0.09995942,-0.026683148,-0.017398568,-0.00071944436,0.026338091,0.12914167,-0.004424474,0.01980708,0.004393393,0.06591598,-0.011454722,-0.03740271,-0.04337346,-0.011843313,0.002269707,0.020818576,0.030481754,0.031857744,-0.014051034,-0.008195177,0.0030236396,-0.011671353,-0.050954357,-0.05910733,0.0993081,0.07336609,0.062010884,-0.053609967,-0.010578152,-0.026388843,-0.00439083,-0.018313559,0.04427608,0.021381244,0.13307756,-0.0008457845,0.050999552,0.091997504,-0.014447622,-0.10129803,0.01955385,-0.033891775,-0.026123952,0.078415416,0.02391345,0.025493786,-0.09634993,-0.02749897,0.030086543,0.0026670955,0.0004465079,0.08151822,-0.0055738776,-0.07704368,-0.034554984,0.00079937885,-0.011237335,0.058653556,-0.08110696,-0.015384082,0.076520205,0.087943025,-0.0008752483,0.0529808,0.015533098,-0.028539132,0.019451274,0.055607583,0.029790899,-0.02289843,0.009838575,-0.00037084304,-0.005007922,0.0603803,0.025745085,0.0008452205,-0.062074926,0.022019405,0.009481686,-0.028325472,0.058036096,-0.12632261,0.010356585,0.04398054,-0.080580674,0.014285564,0.010136789,-0.039261684,-0.0108103305,0.072945714,0.026038647,-0.015580805,-0.019021159,0.04332012,0.07111015,0.025128461,0.013454545,-0.10910894,0.007747514,-0.050499603,-0.039858084,-0.012471668,0.04669342,0.014960881,0.011667327,-0.066647835,-0.003939689,-0.111565836,-0.06921506,0.061939083,0.005059224,0.017997326,0.012697648,0.044322625,-0.04959798,0.06769217,-0.015887901,-0.01473089,0.008775857,-0.019547531,-0.0814564,0.07850762,-0.008097015,-0.06114,0.05014093,0.0028707706,0.0150730135,-0.044609036,0.05028767,-0.04689632,-0.043128263,-0.014199002,-0.02596277,-0.02335828,-0.01303865,-0.11158699,0.024478663,0.022217851,-0.054588888,-0.101299405,0.020906296,-0.003745622,0.048866916,0.014505661,-0.053471178,0.05046456,0.0701934,0.021498984,0.017010685,-0.0070450106,0.07134919,-0.02416487,0.047322027,0.038853634,-0.13056372,-0.04525436,-0.05790541,-0.003829847,-0.029980613,-0.01463757,-0.025769709,-0.0018827718,0.13991706,-0.082271814,0.0048468225,-0.0015011561,0.04852831
日程,-0.0066249864,0.0006538414,-0.013067754,0.010386254,0.03184714,-0.043809503,-0.03252282,0.03845337,0.024295231,0.030244593,-0.018832905,0.03130117,0.070704855,0.028599309,-0.063678235,0.023744732,0.0340932,-0.02484042,-0.0039275032,0.003986063,-0.00858572,0.031706516,-0.05915484,-0.014511118,-0.02137481,-0.033151846,0.026618531,0.04083565,0.014838872,-0.040993046,0.054915626,-0.005510276,-0.0042910674,-0.054579977,0.06714276,0.0036466732,-0.016163426,0.04425338,-0.018401345,-0.0960744,-0.013247212,0.03268382,-0.010355758,0.007385624,-0.01448544,-0.037050176,-0.04094367,-0.034828324,-0.05257122,0.0986463,-0.050873518,0.007047971,0.033165004,-0.07623198,-0.003677509,-0.01278665,0.05305038,-0.013043494,-0.0011010165,-0.021643173,0.015980402,-0.010758585,-0.022569025,0.011726873,-0.009493575,-0.015656907,0.010360459,0.0002479428,0.031922318,0.014373475,0.06152587,0.0016293224,-0.06449777,0.021303963,-0.061927818,0.0728382,0.010572481,0.048734836,0.04124577,-0.008677511,0.031840317,0.08900497,0.051030904,0.021814844,-0.03293641,0.038963996,-0.01788846,0.017776614,0.06280746,0.016766362,0.046259426,-0.09914662,0.05441964,0.03479207,0.0882102,0.022119856,-0.107347295,0.028204834,-0.0018217275,-0.07202848,0.0014821261,0.006737489,0.020545619,0.018214053,-0.07621382,-0.09497745,0.05190279,-0.037747722,0.10002663,0.06973726,0.032707103,0.026407728,-0.08657519,0.0091808615,0.019703249,-0.06555857,0.03552607,-0.00048925396,0.03434649,-0.01076886,0.038159523,0.007582306,-0.014444963,-0.027370675,-0.039089315,0.0105732195,0.036318522,0.08004861,0.023425214,0.021225024,0.079697594,0.029616302,-0.0060693095,-0.08247209,-0.024950009,-0.0014825311,-0.015647339,0.02698333,0.13163792,-0.032406677,0.012735295,-0.007819824,0.055657186,-0.0043154284,-0.065731965,-0.039180957,-0.02602313,-0.00602946,0.014420641,0.053356122,0.016629934,-0.018821605,-0.00332843,0.008397954,-0.01620068,-0.04996185,-0.05461694,0.07410326,0.068041034,0.052142147,-0.06692147,-0.0062609697,-0.032120734,-0.017130975,-0.008830549,0.03358939,0.021391919,0.12816109,0.011871586,0.031435106,0.098031595,-0.045545075,-0.09690775,0.011265882,-0.043201536,-0.0131002385,0.0665777,0.027172664,0.03312435,-0.055473186,-0.024682859,0.032932375,0.018240418,0.009197682,0.065554895,-0.013427968,-0.06870056,-0.0096897315,-0.0011120494,-0.0023191876,0.047941342,-0.07299864,-0.03131106,0.07564088,0.08182599,-0.015496538,0.054693755,0.012784978,-0.028657265,0.0013851083,0.05417817,0.015871437,-0.0086127855,0.020522498,0.018991126,-0.013204302,0.052317593,0.026238004,-0.018105198,-0.05694082,0.00959095,0.0047774264,-0.043845333,0.024898246,-0.08238622,0.017698608,0.052528575,-0.08687525,0.01944004,0.015346891,-0.02293579,-0.010599445,0.0811267,0.028486498,-0.0075388416,-0.026215233,0.005607995,0.06906213,0.0070072403,0.001785534,-0.08330901,0.024540978,-0.058903188,-0.04600167,0.016765855,0.065230444,0.03864145,0.007008961,-0.049852725,0.0038340709,-0.105949074,-0.028992314,0.03802702,-0.004718121,0.016932264,0.017484205,0.030443534,-0.029519627,0.084556274,-0.011852144,-0.015455368,0.01586814,-0.02190479,-0.08444778,0.061353873,-0.015664723,-0.051954564,0.04973684,-0.0045584347,0.0131423995,-0.05574192,0.026229916,-0.055612218,-0.018450914,-0.047430564,-0.020841246,-0.014457821,0.010455223,-0.09443429,0.0026097752,0.016319444,-0.066277266,-0.09589217,0.032516517,-0.014490634,0.05625852,0.018885791,-0.053837884,0.029303782,0.0601374,0.029135454,0.026527202,0.009176183,0.074360386,-0.03284132,0.054735947,0.025603356,-0.1280116,-0.02440961,-0.04819094,-0.014254244,-0.052855678,0.015651183,-0.035648167,0.0004208498,0.1396546,-0.08764193,-0.0010702874,-0.008497411,0.034862228
🌟,-0.10073285,0.4351256,-0.0051230425,0.12811008,0.08173592,-0.15412085,0.08607241,0.09727474,0.23295885,0.27289122,-0.15697968,0.13060014,0.19383745,-0.077582486,-0.74834996,0.15166168,0.17176816,-0.092559375,0.06490931,-0.21487965,0.05291975,0.14604014,-0.5196473,0.028582994,-0.00047349217,0.22673835,0.13996537,-0.016423367,0.22896577,-0.20746443,0.43451694,-0.05657907,-0.12286702,-0.30623132,0.642889,0.3040941,0.12760255,0.415075,-0.14274563,-0.45811924,-0.42331818,-0.0009506287,-0.08975165,0.015460052,-0.15927887,-0.11396297,-0.38014537,-0.15619676,-0.5947715,0.6435566,-0.301622,0.16795166,0.033655215,-0.34012398,0.28202096,-0.19056119,0.11272405,-0.06965297,0.14339796,-0.16592985,-0.086886905,0.15203069,-0.30043036,-0.13396434,-0.257776,-0.2921747,0.14654566,0.14303234,0.38472703,0.081400365,0.35604644,0.24603258,-0.23046067,0.08039666,-0.2752754,0.3649522,0.1024236,-0.12874614,0.07973364,0.21305272,0.17626294,0.21861084,0.2819419,0.5269582,-0.14105567,0.32375205,0.13261287,-0.06709778,0.3009668,-0.09807981,0.31572428,-0.21089092,0.24068971,-0.17762378,0.6134619,0.24451664,-0.3552517,0.48832268,-0.069241,-0.6435767,0.058355857,0.15847743,0.38640383,0.0864302,-0.25177953,-0.38164294,0.23637801,-0.22882609,0.61731195,0.29590073,0.23089936,0.17680313,-0.5389208,0.3380009,0.1714549,-0.29951075,0.23555332,0.23589547,0.14404927,-0.22487657,0.180343,0.27516752,0.073568344,-0.08045579,0.08722574,0.11965867,0.1855179,0.5420068,-0.008919049,0.15696545,0.61753935,0.16966826,0.0137754725,-0.4181238,0.15481779,-0.13973993,0.040272843,0.16700868,0.5601797,0.10565071,0.22688341,-0.27436504,0.2745704,0.012842258,-0.28673884,-0.1663976,-0.020247174,0.10483932,0.14201505,0.012055641,0.33045137,-0.16895868,-0.031342834,-0.12297419,-0.17537117,-0.16407204,-0.28213343,0.6420858,0.41466713,0.1419666,-0.13227065,0.21401328,-0.16473237,0.23812523,-0.03603646,0.16505137,0.21288389,0.71850294,-0.029476002,0.32466286,0.5812808,-0.4025477,-0.4637332,0.12280433,-0.12199866,-0.15289037,0.29272994,0.034678258,0.06537318,-0.29233408,0.026756015,-0.083167456,0.03651193,0.18627071,0.44180623,-0.19181573,-0.34433895,-0.2626559,-0.26113853,-0.33259633,0.091159485,-0.22657272,-0.013022768,0.45710677,0.6996476,-0.1450814,0.11275764,0.056532897,0.07144873,0.21448739,0.18936133,0.1828249,-0.12182404,-0.049283177,-0.0802434,0.06358898,0.3070141,0.19768886,-0.103288844,-0.3861511,-0.083089605,0.33152142,-0.13199376,0.31716755,-0.91193175,0.15040414,0.4462491,-0.48296663,0.19147962,0.4790404,-0.34068972,0.1132273,0.17922457,0.012270753,-0.12942204,-0.124690585,0.24172173,0.4621818,0.12880608,0.11689543,-0.67314255,-0.066976994,-0.4043895,-0.028331643,-0.16969365,0.18560252,0.038578145,-0.032278247,-0.2889036,0.055560756,-0.5809596,-0.07842144,0.34399024,-0.16829437,0.14327274,-0.06616838,0.23598976,-0.33223465,0.08481273,0.082229175,-0.2207229,0.16819167,0.017538628,-0.614686,0.26076627,-0.014503985,-0.16720103,0.14140299,0.13041565,-0.15401193,-0.5998718,0.40946993,-0.33994764,-0.14998284,-0.07095124,-0.29716575,-0.24253015,-0.1105954,-0.44952595,-0.0015834554,0.06894885,-0.35881722,-0.7145424,0.136883,-0.10174775,0.3090841,-0.08104306,-0.30952597,0.24098788,0.6101702,0.2923952,0.1785401,0.1775393,0.5381348,-0.3981068,0.2601058,0.33803034,-0.6840751,-0.2826086,-0.05538161,0.017777935,-0.2285587,-0.009769099,-0.22295903,0.012065541,0.7110916,-0.47826624,-0.04292145,0.023462338,0.25327456
年,-0.5061951,1.6638168,-1.2059159,1.026276,0.3664791,0.61776054,1.8648548,-0.14381318,-0.50196594,0.76739186,0.7140349,1.270335,2.0540447,1.1012995,-0.33468935,-0.869615,-0.61393315,-0.78670114,-1.3721939,1.2646201,1.4035463,0.19443992,-0.25605544,-1.4295049,0.45553604,-1.3639374,-0.9669566,0.8813439,0.9051809,-0.7944431,0.33824375,0.496404,1.1077628,0.29977188,0.48940518,-0.82220817,-2.0776365,0.902608,0.21397156,-1.2692256,0.46002492,-1.0778326,0.41340336,1.6107574,0.83627427,-1.0298829,1.1240283,0.048746675,0.63504946,0.9745201,0.22148019,-1.2184308,-1.374357,-0.17189723,0.50384647,0.24398772,1.7903796,-0.102251515,-0.8073802,0.6842695,-0.27968422,-0.79226726,0.97695214,0.9683524,0.49886972,1.3809369,0.9096753,-0.46660346,-0.34559476,0.7487717,0.72541726,0.34120074,0.3272706,-0.8731661,0.58623105,0.74249303,-0.07292025,-0.5845155,0.21102664,0.6598891,1.6997628,0.35961762,0.108108476,-0.30776364,-0.083750516,-1.6307774,-1.5988667,0.61757284,0.6142053,0.772827,0.7195928,-0.7255135,-0.5563593,-0.8672555,1.5750904,-0.9759145,-0.65416867,0.33941108,0.37152103,-0.32767928,0.3294341,1.7174894,0.33315888,-0.22168902,-1.2910542,-0.3240668,-0.87562084,0.4894216,-0.49701706,-0.7937807,0.5768437,-0.008881881,-0.16032907,0.84499675,-0.16365278,-0.5001448,0.07038988,-1.3104172,0.65239376,0.7619337,1.8168273,0.22976159,0.3088899,-0.5466545,-2.598484,-0.34263977,0.5417615,0.5870511,-0.998326,-0.16343093,-0.39509636,1.38941,0.80402493,0.4073711,-1.456515,-0.90507877,-0.03265654,-0.05832717,2.3904393,-0.8639216,-0.4908339,0.08188807,0.55818653,-0.5368678,-1.0842106,-2.0950255,-1.9079182,0.49458146,-0.084802486,-0.49522144,-1.3271419,1.146159,-1.1250999,0.33666244,-1.9485781,0.22722992,-0.027979257,-1.4388269,0.8185256,0.5149272,0.25288048,-0.025952859,-0.42412072,-2.0523903,-1.2381299,-0.48581696,1.6533256,0.70413977,-1.5748806,-0.709919,0.0138656115,0.3942143,-0.43179774,0.64772236,-0.86371714,-0.5380513,2.156618,-0.6131626,-1.319989,1.2116905,-0.45264915,-0.27645016,-0.37647277,1.1102251,-0.34156188,-0.8146285,0.01957435,1.1644373,0.09779393,0.02342807,1.3787217,-0.07217658,-2.661281,1.3332543,-0.06235633,0.58921105,-1.1104982,-0.39878967,0.06964833,-0.2233289,-0.59462196,-0.44654098,0.035311468,-0.46742392,0.81692636,-2.6995018,1.6845251,1.6879512,-0.32541743,0.91536295,-0.4168121,-0.06970729,0.7940392,0.66548157,0.5793111,-1.5295678,0.14421558,-0.5861778,1.2752845,1.393076,0.6590196,0.12013831,0.32084474,-1.6580942,-0.23588045,-2.0168126,-1.2440006,0.34841704,-0.42381853,0.18889533,-1.8422134,-1.5351186,0.13681951,0.13977961,-0.12866268,0.18160874,0.045157116,-0.2917956,0.22943333,0.07198851,-1.0721059,1.4774023,0.07027951,-1.4917305,-0.3377085,1.2635318,-0.053449266,-0.42723548,-0.67110693,0.05065664,0.84150684,-1.6303573,0.010808422,-0.39541152,-1.7955304,0.18687905,-0.66578823,1.5422091,-0.88321346,-0.47647956,-0.026948743,1.4875128,-0.49053833,-0.029756362,-1.3321441,0.7881861,-0.07484239,-0.33965057,1.074143,2.4381797,0.8185803,0.7186109,0.1749219,-0.42932847,-1.3921988,1.8796737,-0.53900635,-0.11769697,0.067482874,-1.9517978,-0.63917166,-0.36655644,0.625114,0.632868,0.4905311,2.101655,0.40996078,-0.02159127,-0.25114906,-0.48113862,0.16730545,0.01217846,-0.5586142,-0.6852479,0.048923112,0.72782195,-1.6340117,1.0308791,-1.0104779,-0.056832362
里程碑,-0.03397865,-0.09385604,-0.051388454,0.019140497,0.07427189,-0.06384409,-0.10923042,0.087256886,-0.0566764,0.014570406,-0.006695455,0.035575166,0.089194916,0.025504619,-0.08992867,0.06737271,0.025953596,-0.07957849,-0.026110005,-0.0047855857,-0.039682373,-0.011415432,-0.053844333,-0.01714075,-0.115702316,-0.05397574,-0.028527686,0.08340664,-0.0030506244,-0.068014845,0.07325472,0.029991738,0.16131122,-0.0785999,-0.01934087,-0.043926485,-0.06124944,0.10265728,-0.095947854,-0.19857141,0.07075479,0.001527068,0.06101768,0.05111591,-0.0012877969,-0.13132067,-0.057981182,-0.11094797,-0.011713717,0.14173986,-0.017581014,-0.09612633,0.104158536,-0.013418429,0.013980643,-0.029590026,0.08754158,-0.028522655,0.018554492,0.057950635,0.057600234,0.03356538,0.075418085,0.098708086,0.018059986,-0.04051377,-0.019385433,-0.08222842,0.011077322,0.05141401,0.049374387,0.027101958,-0.096857294,-0.11757877,-0.12516774,0.112940244,0.082921125,0.10937713,0.13387005,-0.05323262,0.11048858,0.12091969,0.09012472,0.0058619264,-0.08045499,-0.013554907,0.017103482,0.05144345,0.12273745,0.11676563,0.06363047,-0.13965735,0.13014373,0.08043613,0.09641058,0.007872315,-0.16189715,-0.01861383,-0.009685735,-0.07568955,0.004750417,-0.012758993,0.047683474,-0.022464957,-0.14371899,-0.15916012,0.10370389,-0.011384915,0.1488793,0.13174061,0.064824596,0.100424774,-0.17178716,-0.023211133,-0.017770777,-0.08856009,0.118370734,0.0027099508,0.07950121,-0.0073301787,0.12705228,0.02339642,-0.07432955,-0.13221627,-0.06950408,0.054002814,0.04789613,0.06548951,-0.0043674456,0.074868955,0.086185485,0.023173526,-0.014643183,-0.09525573,-0.037835833,-0.0033648058,-0.049535725,0.023871595,0.10733413,-0.0832537,-0.012888405,0.024959933,0.017059872,-0.021341529,-0.15207067,-0.043596137,-0.10935468,0.008799219,-0.03697678,0.10371333,-0.024688002,0.04303011,-0.026695887,-0.029258778,-0.024367288,-0.12889077,-0.04671552,0.0736693,0.07821132,0.07667378,-0.1089465,-0.0479477,-0.052453116,-0.068969116,0.029876819,0.08323289,0.017846053,0.19554539,-0.09813137,-0.069789894,0.10954002,-0.073201194,-0.20985897,0.0069475053,-0.05889439,-0.03371392,0.0502928,0.0040853834,0.08184795,-0.07385107,0.045795128,0.07237747,0.13611917,0.05081515,0.07283729,-0.015964538,-0.13890675,0.06334457,-0.0363031,-0.010501369,0.07867713,-0.082790315,-0.09529344,0.050429046,0.11152065,0.01703511,0.09523366,0.028496219,-0.100335665,-0.08729685,0.03369386,-0.08836596,0.033458762,-0.044112712,0.10726322,0.024396822,-0.019532569,0.11221612,0.022740763,-0.067859195,-0.007114192,-0.023086052,-0.09122069,0.0025640074,-0.020961365,-0.02776543,0.107012995,-0.10175715,0.0026588386,0.006168688,-0.055948876,-0.035050515,0.11887781,0.023991851,-0.021453531,-0.07561811,-0.0066937134,0.029278887,-0.0072546396,-0.030402848,-0.08826021,0.12989305,-0.038028847,-0.0857548,0.041841708,0.08777441,0.14674854,0.025773212,0.036725227,-0.041225113,-0.123781405,-0.019682374,-0.031418063,-0.0558984,0.014074895,0.020379359,0.063298166,-0.06575445,0.19816619,0.01031398,-0.014529987,-0.041508663,-0.04420664,-0.08242002,0.09588106,-0.016476385,-0.006906522,0.08847336,-0.057914708,0.07025696,-0.063533716,-0.037885804,-0.029559765,0.031533603,-0.05125562,-0.07922391,-0.003452524,0.017106898,-0.07765528,-0.009462192,0.057073947,-0.122961245,-0.096238606,0.03489104,-0.077529624,0.016497917,0.081122845,-0.11516977,-0.0413075,0.091664545,0.16767943,0.021006254,0.024115998,0.036558807,-0.044995103,0.12155776,0.013941634,-0.17935999,-0.011195943,-0.08463781,0.013075813,-0.07848395,0.049545437,-0.077792265,-0.012577478,0.14849769,-0.082818344,0.051310923,0.03181788,0.0077749207
一,-0.21006164,-0.6729956,-1.4632066,-0.070714496,0.5607791,0.5048735,-0.1301173,0.21012065,-1.9995707,-0.65133405,-0.50378156,0.51813966,0.56828445,-0.8282649,-0.29650503,0.15170567,-0.6072623,-0.7708245,-1.1650362,0.29908407,-0.08273804,-1.050199,0.469874,-0.4701061,-0.52364725,-0.4281732,-0.97744817,0.3359369,0.5558854,-0.087294646,0.5317094,0.787822,2.199976,-0.44254047,-0.93069005,-1.1496146,0.21187751,1.027054,-1.142159,-0.9253457,0.68957895,-0.30513397,1.1973193,0.75005096,0.56536174,-1.5562009,-0.071401566,-0.8234868,0.48366234,0.10192862,0.9707781,-0.99861836,0.74632764,-0.25694713,0.87453943,-0.4230466,0.23193222,-0.15467176,0.6951329,1.1521767,0.70987326,0.14270346,1.6468396,1.1825128,-0.14494044,-0.025032276,-0.31687483,-1.2475914,-0.24603288,0.27820444,-0.40498462,0.4638923,-0.5869591,-2.5442157,-0.22037987,0.87599546,0.9611826,1.0026122,1.3429087,-0.9761386,1.2999007,0.3040709,-0.037317723,-0.29632708,-0.094084784,-1.9094104,-0.14201126,0.6029158,1.224511,1.7320809,-0.39185253,-1.4572123,-0.07630568,0.0842563,0.22256665,-0.91265035,-1.2608501,-0.40585387,0.6831453,-0.7117295,-0.75028104,0.70743626,-0.009946246,-0.6027812,-0.62768066,-0.2087199,0.89058423,-0.33299565,0.33449343,0.64486873,1.113531,0.6511546,-0.43974847,-0.27752146,-0.73021924,-0.081506595,0.46607313,0.30402353,1.5586097,-0.2049286,0.99338454,0.11457046,-0.40848133,-1.1726036,-0.13707191,0.211788,0.27549428,-0.50494057,0.055164102,0.36187968,-0.41366926,0.46614048,-0.05779612,0.41023967,0.30138463,-0.46310326,-0.48411745,-0.6983784,-0.4638955,-0.63181365,-0.052985784,-0.28423238,-1.1251434,-1.1222637,-0.95379335,0.5955404,-0.6194446,0.61742806,-0.73486215,0.88294464,0.14807409,0.12704062,-0.73704827,-0.024195094,-0.5099623,-0.31996477,0.5045934,-0.5916639,0.092082754,-0.04284383,-0.9742651,-0.7577582,-0.8843692,-1.575634,0.037441317,-0.0024298388,0.41847968,0.8922693,-1.2374164,-1.1650994,-0.029055722,-1.3353381,-1.4575651,0.01951791,-0.5759683,-0.40897915,0.44743112,0.268767,0.6853668,0.10040589,1.1584133,-0.055493638,1.5754503,0.37526125,-0.09624244,-0.568255,-0.6238268,1.2320256,-1.3434483,0.25792,0.90328693,1.4490732,-0.24224104,-0.48878857,0.6343765,0.3819555,-0.17614204,-0.17408171,-0.84238464,-1.5835563,-0.86069924,-0.97744733,1.4845384,-1.4534669,0.33342332,-0.8814413,-0.9686034,1.371058,0.31628945,0.021002293,-0.18319483,0.14096084,-0.04243648,0.9761724,0.9292593,-0.60367733,1.3808805,-0.19977085,0.63057244,0.21584363,-0.087632604,0.08810644,0.09071761,0.47127774,-1.012521,-1.2099687,0.28382725,-1.1499628,-0.72856534,-0.30139393,-0.59723574,0.5362575,1.2639374,0.17155807,-0.23893881,0.25910178,0.8981619,0.28794625,0.9070373,-0.3643705,-0.17299211,-0.06492056,-0.8843252,-0.56500715,0.21397725,0.3687387,0.26352224,-1.1206328,1.0843691,0.67043054,-0.11868021,-1.7583194,0.5135428,-0.07718272,0.07924955,-0.14034641,-0.16233648,0.5450181,-0.68112236,0.79940856,-0.27692246,-1.3020637,0.32957202,1.1343162,-0.10272339,-0.79970783,0.47568443,0.5389612,0.25297165,-0.26059735,0.085318305,-0.08692823,0.33168197,-1.3400444,-0.9358408,0.31817794,0.14298734,-0.37041217,-0.86216867,0.114360124,2.040798,-0.1554496,0.121865,0.17387773,0.20826271,0.42110497,-0.034081407,-0.43634492,0.27290046,0.038629048,-0.023452511,-0.70255995,-0.20799045,-0.3777454,-0.777493,-0.21944393,-0.060813855,0.74356616,0.82526463,-0.15477732
步,0.27074796,0.2278003,-0.57466996,0.25954643,0.03231453,0.05313915,0.35741568,0.25118166,-0.11794963,-0.065135516,0.43472803,0.3194701,0.078811206,0.28421652,0.089460835,-0.03592461,-0.022260254,-0.36488467,-0.29726914,-0.16418864,0.31539875,-0.2781615,0.24558277,-0.55808944,0.33786693,-0.21203206,-0.24422973,-0.046655454,0.25036514,-0.08956111,0.0560333,0.14965099,0.33647627,-0.036180913,-0.04907006,-0.3169058,-0.24982199,0.30415893,-0.59048426,-0.07697632,-0.23815292,0.2287416,0.42393288,0.7201854,0.10835069,-0.18604745,0.28837863,0.11557342,-0.15698184,0.39776504,0.26025534,-0.549901,-0.24743733,-0.08024258,0.16483256,0.13955042,0.049547642,-0.12104648,0.21617013,0.23042768,0.11544615,0.032827992,0.385561,0.33343077,-0.07138306,0.37601784,0.02205954,-0.5658143,-0.016317822,0.43729657,0.23347391,0.21713567,-0.10598356,-0.35474294,-0.36664483,0.31636193,0.0006578742,-0.0027563975,0.25298852,0.018927224,0.09225337,0.6168715,0.29437986,-0.054076105,-0.098131835,-0.3858,-0.11174395,-0.052400444,0.4110112,0.2800389,0.14376493,-0.39280853,0.112083286,-0.18146978,0.22682194,0.042051494,-0.30176792,-0.12294588,0.26730147,-0.3069394,-0.04253162,0.52647156,0.085971065,-0.09897081,-0.24654342,-0.42187658,0.19951381,0.0998529,0.39473513,-0.2301005,0.27280182,0.43528527,-0.14465398,0.17987217,0.4042123,-0.27086267,0.0859649,0.099619225,0.43624377,-0.05006596,0.6562937,0.24456961,-0.1824562,-0.14065824,-0.6923721,-0.10278498,0.2242045,-0.12515989,-0.09452055,0.0357637,0.2543712,0.48816156,0.26757807,0.028313177,-0.3412033,0.16736157,-0.2607793,-0.22301179,0.23001082,-0.44576785,-0.13462465,-0.20077953,0.103897534,-0.15814473,-0.4894101,-0.3976086,-0.57306796,0.27874509,-0.012334275,0.16550775,-0.025838004,0.12688741,-0.45817488,-0.12179814,-0.041940022,0.24119252,0.18522263,-0.23668784,0.46640572,0.10184542,0.38592735,-0.34953123,-0.07564115,-0.34409177,-0.15036488,0.020852746,0.09364624,0.5636061,-0.24962895,-0.10908474,0.10636111,-0.38936386,-0.22575541,-0.13517961,-0.14812514,-0.18456118,0.19517891,0.21500379,-0.38870832,0.4793427,-0.13396245,-0.28550386,0.062667675,0.03139293,-0.16442811,-0.34113267,-0.38642073,0.27331102,-0.099224076,-0.10147633,0.2124081,0.07509365,-0.51439387,0.12918957,-0.056279328,-0.01028361,-0.014091535,-0.14836824,-0.11835247,-0.16944063,-0.08040359,-0.0522285,0.014753658,-0.041501343,0.09264049,-0.31541088,0.18167353,0.634785,-0.3506903,0.07403607,-0.12149299,0.09812109,0.13379619,0.23140539,0.4867366,-0.19086331,0.3810767,-0.1569209,0.10792522,0.48676115,0.2702703,0.08202397,0.40410018,-0.25082198,-0.15186505,-0.36392373,-0.39336026,0.11672898,-0.06843565,-0.010898248,-0.18735935,-0.086429514,0.1925959,0.09092194,0.23256934,0.015350115,-0.048087224,0.049374208,0.32585883,-0.16045819,-0.16119148,0.37052068,-0.20974891,-0.29735413,0.033883892,0.16003157,0.14516027,0.24025244,0.5512149,-0.18397054,-0.21708651,-0.10571053,0.14187415,-0.37562323,-0.014886787,-0.048699267,0.15642485,0.07409874,-0.44732076,0.09432592,0.012623632,0.28563213,-0.34802333,0.19900653,-0.6633651,-0.018929306,0.25563455,0.15342604,-0.26320073,0.43900207,0.08120939,0.07266273,-0.07802191,0.07783684,-0.7527652,-0.44308218,-0.21391925,-0.049375437,-0.21699299,-0.36276472,0.34095588,0.14207314,0.060318448,-0.09692386,-0.12042943,0.6695354,0.06902039,-0.032406345,-0.037253756,-0.16543598,0.004350867,-0.33196968,0.04884634,-0.16682617,-0.44960654,0.13836496,-0.4007292,0.0714047,-0.08295187,0.29629835
腳印,-0.0027621281,0.03310934,-0.09352063,-0.005816851,0.012727176,-0.035290312,0.042266246,0.08279609,-0.003667446,-0.010459025,0.055669293,0.044701718,0.05412128,0.06865075,0.013576432,0.0008288844,-0.039696936,-0.037058175,-0.040482283,-0.020144297,0.02006822,-0.041514266,-0.019102482,-0.06942006,0.02673767,-0.052074358,-0.079343796,0.031693753,0.04779014,-0.01832967,-0.004011661,0.008427248,0.078881554,-0.04045838,-0.0013967003,-0.07552119,-0.022283534,0.0853366,-0.088681266,-0.12574062,-0.025520494,0.0048841946,0.019867219,0.09501149,0.005237441,-0.08415977,0.058926523,-0.03140065,-0.005309406,0.06813157,0.004608462,-0.11519536,-0.030170938,-0.092745274,-0.009249243,0.01580818,0.06526118,-0.024549816,0.06681119,0.03197183,-0.00273309,0.0024319969,0.050834507,0.09353753,-0.006640193,0.06881062,-0.02342283,-0.0973045,0.0010985662,0.049264174,0.11147311,0.01879411,-0.0665305,-0.06720904,-0.07592714,0.11464441,0.028558526,0.066718824,0.07541399,0.008651943,0.035732195,0.12106743,0.06546792,-0.014742598,-0.04653471,-0.02049468,-0.049438126,0.044870984,0.11930725,0.06105332,0.059887245,-0.100901686,0.07746822,0.039674096,0.106388606,-0.030191207,-0.08247026,-0.009062148,0.009797756,-0.09006337,-0.05583341,0.06382291,0.028003778,-0.0041996283,-0.11413499,-0.11712476,0.058252264,-0.00830357,0.10507909,0.013241711,0.06693046,0.0658956,-0.086924784,-0.012774067,0.031371016,-0.049878336,0.016479533,-0.0025071795,0.046409093,-0.0021295028,0.11383385,-0.0004987266,-0.077201776,-0.010383626,-0.15286623,0.029198872,0.08161136,0.034535684,-0.008316716,0.015907848,0.039321505,0.0854276,0.046101306,-0.057784583,-0.057250313,0.014058567,-0.012802644,0.029856523,0.07768711,-0.049727213,-0.07082395,-0.018809281,0.065231025,-0.02333143,-0.10380204,-0.058474727,-0.081725866,0.03298964,0.037514772,0.050590996,-0.008014908,-0.01169138,-0.08583379,-0.029821089,-0.0042269807,0.008617428,-0.018950671,-0.0024041128,0.13713616,0.06749859,0.001308952,-0.1100726,-0.013486497,-0.09956026,-0.05022467,0.021248346,0.05201908,0.10163584,-0.05234728,-0.07538505,0.025664587,-0.017651716,-0.12956646,0.007325805,-0.04202665,-0.042052012,0.0815873,0.029306617,-0.039382722,0.0042920867,-0.018751794,-0.018864062,0.05926124,-0.035400957,-0.019179434,-0.07997771,-0.14029518,0.06244695,-0.08391279,0.02524967,0.034387063,-0.02133946,-0.07068275,0.034788582,0.010711695,0.049361717,0.037058957,0.016401801,-0.1003292,-0.04142478,-0.026561221,-0.09950892,0.0019290175,-0.0019742113,-0.020162169,-0.046012152,0.0012720815,0.12387602,0.014671257,-0.02685125,0.041574057,-0.003275857,-0.0024475586,-0.009428871,0.06325733,-0.011561674,0.069225416,-0.018611168,-0.0068307784,0.03762025,0.039929222,0.044945266,0.050346956,-0.007804264,-0.029080054,-0.08310917,-0.035414178,-0.009907962,-0.0005031432,0.0143740345,-0.06500782,0.02800411,-0.002813939,-0.018553203,0.043240618,0.035264015,0.038275197,0.06293742,0.09418398,-0.01684708,-0.07969362,0.06633617,-0.02603986,-0.061970238,0.02582365,0.051442627,0.010832937,0.021083474,0.14863268,-0.048695374,0.02459019,-0.08505104,-0.0036787493,-0.04108375,0.03537425,-0.023342099,0.010956255,0.058180984,-0.032228343,0.0548455,0.006239439,0.06473506,0.0036278183,0.035449605,-0.08438392,0.007739619,0.06589221,-0.016464967,-0.051678915,0.10626049,0.01848288,-0.0482708,-0.06493654,8.174325e-05,-0.15047333,-0.0065092454,0.02185535,-0.0396918,-0.054690003,-0.058520783,0.11092447,-0.007917744,-0.03154445,0.026345393,-0.0044462504,0.11753947,0.005074584,-0.08871354,-0.02624757,-0.031439114,0.013081861,-0.051536653,0.0402557,-0.12468076,-0.078490354,0.095872164,-0.14509858,0.039378177,-0.038519774,0.08530219
做,-0.12078956,0.35347182,-0.017899552,0.18728383,-0.1679313,-0.13927466,-0.7979844,0.728104,0.30394188,-1.4364257,-0.07554448,-0.6176982,0.6150663,-0.1718345,-0.078272365,-0.61533374,-1.5241445,0.12728378,1.1320164,-0.9498404,-0.7638113,-0.37866133,-0.3169585,0.06385203,-1.6951176,-0.82155627,-1.8205069,-0.13227451,-1.4753746,0.42021656,0.33615574,-0.15724654,0.08424709,-0.44277397,0.040574364,0.15697,1.2880461,0.4371447,-0.5525194,-1.7527549,-1.0385019,0.09943318,0.9451466,0.6691741,0.46909538,-1.201193,-0.07059143,-0.16009139,-0.60260963,0.45442235,0.054867137,-1.0238507,-0.40058222,-0.6274349,-0.7664183,0.7261835,1.0627187,-0.18138805,1.4983459,-0.00676019,-0.82575446,0.33759013,0.6205852,-0.028578442,-0.28909442,0.37090272,-0.4347865,-0.79450107,-0.09134888,0.5163805,0.40405566,0.33307323,-0.9724454,-0.1335175,0.29557613,1.6136727,-0.0897199,0.6774992,0.47793394,1.1624852,0.63939226,-0.14565073,-8.299397e-05,-0.34233373,0.1745589,0.09455458,-1.3751088,1.178086,0.3576772,1.1503655,0.4586329,0.5849048,0.678973,0.33106288,0.8637779,-0.40738156,1.4510264,-0.27372137,-0.2997707,-1.5815971,-1.3270744,0.6165353,1.3492651,-0.16818954,-0.101773515,-1.3147839,0.17634699,-0.08477927,0.23046279,-1.4859215,0.88361526,0.34134895,-0.23255396,-0.42698023,-0.7707985,-0.06545597,0.9237877,-2.2195659,-0.58494514,0.562413,0.7943173,-0.15661229,-1.0096878,0.76268446,-1.4743732,0.59496355,-0.12786639,1.2449667,-0.25901222,-0.53380567,-0.56786096,0.23406345,0.8672802,0.13069479,0.027942777,-0.66409165,0.68734074,1.0637993,-0.73200613,1.2808151,-1.737057,-0.6621406,-0.10697859,-0.4882186,-0.11585066,-0.75227684,-0.65631425,0.49356374,0.7950989,0.6225944,-1.0534068,-1.0817052,-0.85772973,-0.9362885,-0.039213907,0.24782032,-0.8825768,-1.0862917,1.4074668,0.32519388,0.8080275,0.12884916,0.81020075,0.20370843,-0.64082515,-0.5055352,1.4891717,0.36662582,-0.854396,-0.7044234,-0.3668891,2.810858,-1.5301666,-0.44792008,0.42414656,-1.1152353,0.88288593,-0.9001504,-1.3085856,-0.9617432,-0.73506904,-0.51902324,0.52676696,-0.8279496,0.34693527,-0.4618753,-2.0916061,0.659288,-0.06626484,0.8358963,1.0794032,0.16118436,-0.13948932,0.010867968,-0.68862414,1.562151,-0.96976876,-0.32695735,-1.3357047,-0.81051725,-0.17426477,-1.2065506,0.17111379,-0.14129877,-1.5749705,0.38940296,0.40607062,0.77688736,1.0549306,-0.37087905,0.927084,-0.43170658,0.91182786,0.11474908,0.18806419,-0.9359499,0.2167334,0.7716556,0.12816684,-0.6620901,-0.09628573,0.9607021,0.019241598,-0.5191692,0.08175352,-0.66938156,-0.5749498,-0.97458625,0.16513091,-0.1773936,-1.2254664,0.1959382,-0.080518275,0.27589095,-0.3566537,0.10519705,0.142422,1.620501,1.5136691,-0.7019728,-1.0133479,1.4254119,0.4049258,-0.26591322,-0.8840075,1.5390577,0.62235,0.93369734,0.55660015,-0.08480593,0.24517804,-0.78417116,-1.4424163,0.17343175,-0.22636583,-0.36333892,-0.7363743,1.6053462,0.7900975,1.1394148,0.35443828,0.786101,0.8975734,-0.102761224,1.189542,0.10404328,0.4053429,-1.2025185,-0.48475873,2.596977,1.4281113,-0.3256464,0.59677315,-0.017030844,-0.601244,0.5718977,-0.40101594,0.6139399,-0.36546355,-1.4465013,0.71574473,-1.0336745,-1.5314909,0.7019873,0.69251394,1.2525843,0.21144962,-0.7872745,-0.8451623,-0.121147215,-0.64122236,-0.40751472,0.7421933,-0.70134264,-1.617289,0.9006532,-0.44063568,0.09319371,-0.113488324,-0.25889364
任務,-0.07199021,-0.057077043,-0.007617484,-0.054530364,0.036861986,-0.11997547,-0.049814306,0.3874153,0.107416354,-0.12098438,0.21598321,0.04042091,0.17815958,-0.011236282,-0.059997838,0.05164304,-0.208201,-0.06599175,0.0032274867,-0.013454311,0.07112861,-0.14538136,0.04845215,0.04966344,-0.016926304,-0.086343296,-0.07127242,0.17981973,0.008932598,-0.084418066,0.17432712,0.0027335724,0.048592247,0.12690747,-0.08647798,-0.11922834,0.06785135,0.062294234,-0.065969475,-0.2674519,-0.025926441,0.019146036,-0.049491357,0.20166102,-0.03123262,-0.13278042,-0.14284362,-0.076938726,0.075794704,0.18186334,0.1403697,0.013918635,0.07583002,-0.021174751,0.11844809,0.07464983,0.047339097,-0.0906057,0.074958324,0.26916975,-0.09569025,-0.047029164,0.100935474,0.33600664,-0.13388231,0.23377115,0.077601805,-0.11010785,0.22185583,-0.026005847,0.2804177,0.039027188,-0.048838515,-0.23182449,-0.057508033,0.33585483,0.03758229,0.21114264,0.21648744,-0.19337963,-0.17039123,0.03230432,0.095605746,0.11314052,-0.0925978,-0.15222701,0.03798442,0.14500317,0.12585767,0.12050192,0.15978381,-0.11748025,0.086535364,0.19816405,0.0076342346,-0.21142393,-0.2188651,-0.18423237,-0.017400568,-0.17341468,-0.108519964,0.1446965,0.015124015,-0.07415069,-0.17872246,-0.076579094,0.16618167,-0.21078733,0.17585926,0.19664662,0.004442176,0.17020576,-0.1911491,0.082216956,-0.024319815,-0.10735308,0.00986659,-0.030276278,0.17444284,-0.039289456,0.27702904,0.13335316,-0.15006654,-0.12323001,-0.1905884,0.04984739,0.16844454,-0.06568201,-0.08728852,0.013477566,0.03172213,0.017533088,0.035486154,0.0034458821,-0.04149585,-0.23513955,-0.05052193,0.2815882,-0.062774844,0.008414824,-0.11120441,0.10122036,0.06841087,-0.12583835,-0.14113173,-0.056002997,-0.04701974,0.25864205,-0.026274754,0.25882223,0.0022808404,-0.06467607,-0.015857825,-0.026889944,-0.0051954114,-0.0025685302,-0.19420698,0.05974519,0.27900892,0.27563852,-0.17954665,-0.21181965,0.14124134,-0.34643906,-0.075457186,-0.03989351,0.26678798,0.17090431,-0.12952232,-0.06929492,0.103830285,0.15699013,-0.27163035,-0.007813787,-0.052871596,0.11592202,0.21184047,0.11283411,-0.20381258,-0.075593926,-0.04952252,0.15619695,0.40966973,-0.3033551,0.05794932,-0.10721388,-0.4788717,0.1096632,-0.23237939,0.02892526,0.31155175,0.0582309,-0.0027435073,0.10224441,0.099277385,0.0510064,0.15095118,0.0029490879,-0.2603193,-0.05487609,-0.0134063205,-0.39087495,0.037090886,-0.018996248,0.085668094,-0.032144036,0.044093303,0.25332263,0.011642559,0.005715883,0.10895462,-0.08854054,-0.12585759,0.123926096,-0.12188145,-0.21676882,0.18534787,-0.08068308,-0.011344072,-0.005874176,-0.008697684,0.015677674,0.12134971,0.0069041927,-0.13247651,-0.16319491,-0.05575421,-0.0010387811,-0.07516939,0.09338589,-0.2236176,0.16775812,-0.11326102,-0.033990063,-0.045230333,0.0966332,0.1949067,0.12633337,-0.0023224133,-0.10417319,-0.20551655,-0.032206234,-0.06941857,-0.101816155,0.055562694,0.24107091,0.097467974,-0.025554419,0.18739155,-0.039315473,0.10391051,-0.09265665,-0.04512099,0.0011409143,0.1805227,-0.06309678,-0.039324462,0.22272521,-0.0073706964,0.1696359,0.02006219,0.091689035,-0.052019056,-0.056878168,-0.05711692,0.018264217,-0.051309455,-0.13537547,-0.15069944,0.10339175,-0.006178601,-0.099700004,-0.15683182,-0.18926428,-0.26409414,0.12251021,0.16720626,-0.11530883,0.07457601,0.09103052,0.24010152,-0.044012934,-0.034472287,-0.069441274,-0.03950766,0.26583266,-0.09274624,-0.2211396,0.016367787,-0.13991435,-0.033769213,-0.24356414,0.009864121,-0.070325576,-0.09709234,0.12612249,-0.2785607,0.27367917,0.0004359615,0.041772716
集,0.6313943,0.73255116,-1.2743351,0.6227421,0.45948258,0.68818784,0.42865115,-0.19038032,0.1589772,-0.16642913,0.27140585,0.29795063,-0.6226618,-0.2873701,-0.17729379,0.08632267,-0.44108653,0.18006863,0.4363519,-0.08996358,0.39304954,-0.46121433,-0.18592998,-0.5525314,0.6978432,0.4773461,-0.3851568,0.5227212,0.58963037,-0.29448453,0.41334245,-0.04319656,0.6965499,-0.3597256,0.37783122,-0.10070562,0.5900434,0.5683444,-1.0039856,0.03819023,-0.7642843,-0.274019,0.59568703,1.1004165,-0.6566256,-0.56874114,0.1012873,0.016006112,-0.32509065,0.4675101,0.6541946,-0.94358087,-0.65463966,-0.37784684,-0.1193452,0.2421249,-1.0031708,0.017357035,0.38264,0.7477367,0.09959792,0.87865657,0.5503868,0.38002247,0.042635385,0.17313018,-0.4500121,-0.8132975,0.2711356,0.581701,0.06431547,0.7417355,-0.08600204,-0.64015263,-1.1771615,1.0599582,0.5893498,0.2321602,0.20411731,1.0853149,-0.17993155,0.5180471,0.89562535,0.4881102,-0.6606688,0.2506192,0.019188818,-0.15716326,1.1169615,-0.20656198,0.7007,0.68727106,0.52337456,-0.2637388,-0.18286483,-0.58456767,0.41833293,-0.28899026,-0.039386727,-0.5261197,-0.21372022,0.8728982,0.46608466,-0.116333425,-0.8353485,-0.004075701,0.6991381,0.41571924,0.6877836,0.13224469,0.16575481,0.62510633,0.18372668,0.4659611,1.1929046,-0.3678165,0.69024503,0.81186914,0.47186616,-0.6165365,0.52708066,0.26245344,-0.14855745,0.24705921,-0.5093486,0.6620875,0.5757015,0.07948565,-0.42837915,0.19382806,0.27883458,0.11815418,0.3064024,0.29610506,1.0143311,0.021616356,0.067123316,0.25241244,-0.04000992,-0.2823894,0.5741493,-0.7795184,0.11750131,0.36909634,-1.2097721,0.008667673,-0.20013098,0.589172,0.17711739,0.07068238,0.5950521,-0.3426142,-0.73855245,0.14561707,0.2472762,0.70637465,0.27988255,0.1379585,0.7310379,0.040043842,1.096709,-1.2124043,0.017269392,-0.39680198,0.18852736,-0.10786418,0.28731465,0.8262331,-0.85509264,0.10617248,0.3911771,-1.3294281,0.14112562,-0.38272327,-0.0872082,0.05093722,0.11408683,-0.007933455,-0.15118967,0.99415404,-0.04251941,-0.64604825,0.43691844,0.23186249,-0.11898657,-0.55589443,-0.46085116,0.31514382,-1.2418,-0.3994573,0.6591108,0.6956541,0.32198253,0.109984696,0.17417924,-0.34231436,0.023211742,0.00047964707,0.3476587,0.4772641,-0.50506335,-0.3718945,0.25794944,-0.055625483,-0.5964862,-0.15190677,0.3048063,1.1896338,-1.0440366,-0.18354303,-0.4595305,0.08458275,0.13834018,-0.16219503,-0.4539407,0.77673805,1.141932,-0.12225264,0.24213696,1.7672387,0.019847967,0.7089302,-0.25896344,-1.0598661,0.1137808,-0.04618019,-0.14966248,0.121629,-0.012734658,0.23899063,-0.698462,-0.74703026,-0.34072298,0.16845737,0.15899982,-0.53188044,-0.099659026,0.08383698,1.0950025,0.2424694,0.31408963,1.2538735,-0.5469281,-0.8262963,1.1660043,-0.13075405,0.8829886,0.09453211,0.65917295,-0.027927835,-0.34260523,-0.3836758,0.17353225,-0.6060881,-0.6944801,-0.45739815,1.0717487,0.118762046,-0.0139484275,-0.6181949,-0.7617913,0.91088134,0.17012246,0.020466255,-0.8095393,-0.3772695,0.04762669,0.055145096,0.20621762,0.105831504,-0.7558377,-0.644727,-1.4799646,0.8209446,-2.2094965,-0.41059196,-0.3173828,-0.6214534,-0.5971599,0.019262135,0.78527075,0.23381788,-0.02556101,0.34097448,-1.1148139,1.1465895,0.49856472,-0.35420293,-0.09207476,0.35243714,0.32500312,-0.709284,1.108677,-1.337333,-1.0367826,0.49831092,-1.9360853,0.07048798,0.19367364,0.44739535
步數,-0.020700524,-0.033789955,-0.032453,-0.003480519,0.009687027,-0.043174263,-0.032361217,0.08375662,0.0013089236,-0.032135487,0.022434767,0.024203418,0.055130567,-0.0014216364,-0.01984784,0.011914619,-0.045904104,-0.03640959,0.005787992,-0.008651745,-0.018656613,-0.01838226,-0.021149522,-0.009443301,-0.032309394,-0.01755304,-0.045889646,0.043979414,0.010007652,-0.011589801,0.03303991,0.020708993,0.058515977,-0.015569817,-0.014584897,-0.033636734,0.023737144,0.04915899,-0.036419768,-0.11090101,-0.017985143,0.0018047101,0.006349126,0.043265764,-0.0036712703,-0.06746014,-0.027209982,-0.036423627,-0.0077828458,0.04248971,0.022282172,-0.024276428,0.01812008,-0.035822317,0.018377518,-0.0037723852,0.018238515,-0.029736457,0.04633757,0.04577619,0.0084900735,0.007415168,0.03406631,0.07806458,-0.034607228,0.031451643,-0.0016077235,-0.037718028,0.0390251,-0.009524383,0.05678255,0.027611237,-0.04758966,-0.06647657,-0.035592794,0.10236845,0.03321645,0.06951621,0.046396896,-0.022432044,0.008904477,0.03599449,0.04227707,0.017037766,-0.03354187,-0.0035481076,-0.004747871,0.043250594,0.08350579,0.046715405,0.046784446,-0.052485105,0.075088784,0.045539055,0.04623175,-0.042474605,-0.056854,-0.028831242,-0.015916955,-0.07288452,-0.040123858,0.03982228,0.013873309,-0.03350592,-0.06713082,-0.0563278,0.04979369,-0.042977948,0.07600704,0.04898263,0.025292354,0.0410835,-0.056286264,0.010179401,-0.020597577,-0.034914017,0.029659731,-0.012646825,0.040060982,-0.023175642,0.07616655,0.01420722,-0.045256987,-0.046863552,-0.055786446,0.032822344,0.03712709,0.033635624,-0.005619753,0.0050525516,0.013823163,0.026415033,0.014138312,-0.04499413,-0.0036619946,-0.031575236,-0.021372601,0.034597572,0.017432066,-0.008545156,-0.04129214,0.009384244,0.024148375,-0.039331503,-0.055023238,-0.003198411,-0.034816515,0.040251445,0.007919402,0.04814218,-0.00964357,-0.02090841,-0.017914597,-0.0018297291,-0.00852387,-0.033563618,-0.035309568,0.030150698,0.082524486,0.07717532,-0.036057793,-0.056128874,0.017268023,-0.08559118,-0.025416741,0.031102344,0.054995134,0.06941069,-0.045410592,-0.035553705,0.039905764,0.007889089,-0.106312364,0.0043187276,-0.03554828,-0.002285716,0.06363415,0.021983573,-0.0032600523,-0.05005882,0.0062865135,0.031263843,0.088696115,-0.039857335,0.026940318,-0.03152317,-0.122838,0.047613032,-0.07554639,0.015085451,0.08814093,-0.00932796,-0.02271877,0.012943611,0.04333506,0.023965172,0.03219534,0.0013567037,-0.08465934,-0.028378276,-0.0074036117,-0.085422605,0.02210352,-0.02800348,0.010715916,-0.0051830774,-0.0023531187,0.08155665,0.015630234,-0.026034987,0.022415051,-0.007973696,-0.027500631,0.030954495,-0.032767557,-0.016326448,0.07043243,-0.038431138,-0.010863957,0.012260019,-0.019058058,0.009627451,0.03673759,-0.0015768328,-0.032630783,-0.044624325,0.01510058,-0.012442033,-0.016119542,0.009476599,-0.087810986,0.03605497,-0.0040465915,-0.022976339,0.004676908,0.009978893,0.047472082,0.031012507,0.036983814,-0.012213338,-0.046338286,-0.01386054,-0.017647898,-0.027888544,0.022588538,0.049269885,0.025713641,-0.0076945466,0.082647085,-0.008289777,0.025156304,-0.052096214,-0.030223664,-0.023485215,0.053910833,-0.033198174,-0.011772593,0.05986119,0.0004662703,0.054041367,-0.0058422675,0.011969372,0.002124807,-0.007838549,0.0013086114,0.00043684052,-0.004692647,-0.016656816,-0.040143352,0.036213767,0.025430484,-0.06145489,-0.050375715,-0.015453847,-0.074699454,0.030619595,0.03884612,-0.05600978,0.017324068,0.027692188,0.093254164,0.00078337005,-0.009364077,0.0060581276,0.0025831496,0.08746476,-0.00936026,-0.091407716,-0.012841732,-0.04695805,0.0116719315,-0.051660445,0.0050358893,-0.061247393,-0.032785103,0.09807929,-0.09338849,0.050658196,0.009285848,0.033300664
解鎖,-0.042024456,-0.043116856,-0.049668957,0.057130326,0.021243354,-0.051795423,-0.04279416,0.16038653,-0.028950116,-0.020953173,0.0505069,0.10441369,0.1368272,0.0326588,-0.06396767,-0.00045825247,0.026861997,-0.08734786,-0.034583226,0.014998894,0.045102447,0.018370945,-0.04493979,-0.06609318,-0.054992843,-0.046068866,-0.011115312,0.072172545,-0.0011870299,-0.0016097204,0.104680546,0.023722688,0.13331926,-0.041873675,0.02132905,-0.05066824,-0.0601096,0.1201208,-0.046853688,-0.15208305,-0.028151177,0.061182182,0.007549146,0.09284245,-0.021048049,-0.076258354,-0.112101085,-0.052048303,-0.031081103,0.14043608,0.002879676,-0.031850632,0.038847476,-0.06433548,0.018079136,-0.026261384,0.13703701,-0.018161178,0.010106225,0.018866306,0.05239221,0.010784212,0.060413536,0.13492547,-0.042802405,0.042002365,0.026571002,-0.048764754,0.04748893,0.039996274,0.11278564,0.032614715,-0.11254201,-0.12740073,-0.044473346,0.1775059,0.07902197,0.070628986,0.11031296,-0.058196656,0.047957376,0.09206575,0.052103586,0.07155851,-0.099280156,-0.05423397,0.02594635,0.043664895,0.16021359,0.09850132,0.052290495,-0.16449931,0.13297814,0.020673504,0.14125459,-0.03876725,-0.1905236,-0.010107905,-0.009419992,-0.1582587,-0.011711435,0.099382706,0.04394331,0.0046557314,-0.1557541,-0.16703762,0.11903264,-0.026275389,0.1290008,0.07324313,0.072665244,0.10062127,-0.16720882,0.06866298,-0.008095538,-0.10236317,0.08359556,-0.004058305,0.14703181,-0.038207322,0.12166938,0.03153415,-0.05280769,-0.112230405,-0.15928715,0.017043037,0.10245585,0.07810775,0.0016312749,0.022462597,0.07445422,0.07598254,-0.0054625073,-0.10668122,-0.035238717,-0.049634684,-0.08705779,0.03458491,0.14764595,-0.11367632,-0.01434236,-0.06411018,0.0759788,-0.07898175,-0.14413777,-0.057925824,-0.0977341,0.09362573,-0.03014666,0.06960447,-0.013323954,0.0017042109,-0.027984407,0.0070500076,-0.12911008,-0.105559826,-0.096115775,0.10274132,0.13088071,0.13278675,-0.09614308,-0.06760999,-0.010763937,-0.15018994,-0.038076133,0.062828526,0.11677512,0.20732415,-0.08372245,-0.028325623,0.1464743,-0.070006825,-0.17662732,0.009181285,-0.10367075,-0.045223407,0.15553807,0.0679236,0.03549714,-0.07985609,-0.013822588,0.028404668,0.14091356,-0.012975498,0.072106935,-0.09658901,-0.17018718,0.06098276,-0.050870135,0.017771082,0.13164166,-0.04419631,-0.07253565,0.124043494,0.15982968,0.028948523,0.0381608,0.0003926903,-0.1411245,-0.044950843,0.06674089,-0.080719225,0.012889975,-0.01837099,0.08454309,0.012000232,0.04709252,0.14590582,-0.046931587,-0.056482933,-0.010700688,0.005435119,-0.06895498,0.068390355,-0.13521984,-0.04359584,0.15577635,-0.14859572,0.016970465,0.0047883024,-0.01783488,-0.006832664,0.11760296,-0.03612914,-0.021766463,-0.080344215,-0.012134609,0.06825458,-0.018329766,0.030742316,-0.13549991,0.04208978,-0.074255876,-0.02096302,0.0006061207,0.020011934,0.076117374,0.015208366,0.018448438,-0.02623078,-0.12716867,-0.000739776,0.02949105,-0.09560058,0.044654287,0.06315907,0.038899343,-0.04798702,0.15916118,0.02449302,0.025560725,-0.060551994,-0.058184404,-0.15037054,0.062057808,0.0069526373,-0.08915894,0.11477206,-0.05596146,0.0761304,-0.07159147,0.038087122,-0.1010185,-0.018835139,-0.093984514,0.007733685,-0.004842184,0.034322646,-0.044055022,0.07250134,0.089972265,-0.09513591,-0.1650369,-0.049728114,-0.13078551,0.067459755,0.049697667,-0.07524341,0.058287147,0.057312988,0.12499555,0.032913223,0.06546685,0.08276779,-0.018891355,0.18675567,-0.0066187466,-0.20387226,-0.032014653,-0.0799343,0.034848876,-0.07737298,-0.06325602,-0.08836054,-0.026930973,0.22372277,-0.19272903,0.046375185,0.038504418,0.08151492
個,0.09485273,0.46879762,-1.5141656,1.0719216,0.05494687,-0.003556108,0.21953253,0.80997634,-0.43385985,-0.60085064,1.0978489,1.1928686,1.1755964,-0.09292852,0.76854223,-0.410851,-0.34849074,-1.0164388,0.05186511,-0.0003206023,0.98241,-1.2734259,0.7793266,-0.9477042,-0.05176783,-0.033291593,-1.0698116,1.0596335,0.10551752,1.3429525,0.87040997,0.22991188,1.5485251,0.31792974,0.6886226,-1.2956133,-1.217485,-0.45009694,0.06438269,0.598162,-0.08563151,-1.2833679,0.23555781,1.3502212,-0.7451609,-0.14724268,-0.20091617,0.7547352,0.4228807,-0.4419693,1.1554052,-1.5076964,-1.0260816,0.041082148,-0.44581258,0.8138538,1.0050238,-0.024765834,-1.0159543,1.1086563,-0.101555735,0.23884045,1.1200414,0.64195585,0.9778381,0.79601455,0.5097554,-0.81472206,-1.0130932,0.16401929,1.0131391,0.37107506,0.3117691,-1.1998415,-0.0026069218,1.4906757,0.67793345,0.19703212,0.7576883,-0.33031294,-0.04042814,0.40184698,0.9932188,0.99229753,0.027670326,-0.7671752,0.2631645,-0.17911316,-0.10860357,-0.04798757,0.6271137,0.8465507,-0.5558318,-0.65850025,0.5227445,-1.4687291,-0.402037,-0.94136375,0.34327093,-0.36816728,0.047574386,0.93717855,1.1036109,-0.40691614,1.0013286,-0.65619075,-0.05319647,-0.08191125,0.56914675,-1.0498407,0.88341856,0.37067172,-0.34138379,0.61558187,1.1645464,-0.8777032,-1.2904685,-0.21684606,0.88476735,-0.09879361,0.8221701,0.35054004,-0.8208985,-0.6986617,-1.9794087,-0.48344994,0.80168617,-1.0078505,0.09915204,-0.5726266,-0.1256019,0.7877918,0.97956127,-0.21233396,-0.102880225,-0.38296768,-0.70442533,-0.1343876,-0.46416757,-0.57962906,-0.6115674,-0.45517692,0.8547753,-0.4004013,-0.05845378,-1.523683,-0.48467675,0.7955239,0.37545225,-0.21159057,-0.5093371,-0.35236344,-1.2134681,-0.697148,-0.63516307,1.2059194,-0.5624884,-0.8248542,0.6632612,0.94047993,1.1212404,-0.82415926,0.41817498,-0.5513723,0.055839557,-1.2751186,1.2960876,0.09177677,-0.68124825,-0.5712062,-0.88915956,-0.2663662,-0.24216081,-1.01632,0.029067924,0.91669846,1.2984651,0.5123993,-0.6855814,1.6716849,-0.08652482,-0.26300174,0.22537504,-0.06267327,0.13277109,-1.4624742,-0.9615032,1.003096,-0.09118431,-0.0685009,-0.018237293,0.7714734,-1.2429843,1.0268526,-0.54023755,0.22456552,-0.91762537,-1.0049245,-0.67894226,0.5315713,-0.48042625,-0.75206745,0.55891424,-0.2858544,0.33246842,-0.30028704,0.06947715,2.0396972,-0.6070052,0.23307444,-0.41825208,0.40369126,-1.6252829,-1.4002961,1.1876767,-0.5345904,0.71994346,0.15163967,0.097035885,0.92708695,0.12945306,-0.069932945,-0.1662178,-0.6282728,0.35864887,-0.63499343,-0.6690031,0.2589605,-2.0672784,0.8623718,-0.2911982,-0.5669512,-0.22316265,0.29613215,1.1594034,-0.07737469,0.50705266,0.035573293,2.0265262,-0.2803187,0.57268375,2.378072,-0.4619753,-0.021235147,-0.9146976,1.3165678,-0.14912878,0.1754397,0.94487494,-0.16950464,-0.16756794,-0.8710158,-0.06213605,-1.6620637,-0.6503926,0.26130435,0.5454651,0.46421906,-0.8294614,0.41184193,0.72138536,1.4422029,-0.40234417,1.3285878,-0.7956338,0.83883315,0.72681296,0.4486386,1.2240698,1.7693616,-0.5334673,0.21198511,0.130651,0.107432954,-1.7923105,-0.5761781,-0.5630914,-1.4222871,-0.3811346,-0.9074242,0.49245226,1.0386987,0.33142674,-1.3504257,-0.0949771,2.2349563,-0.08009642,0.5042481,-0.6461821,0.59293616,0.9094438,-0.6155253,0.32099727,-0.7445158,-1.8637614,-0.33243036,-0.8230788,-0.3730522,-0.37869903,0.8266613
大事記,-0.019602217,-0.038354855,-0.03207064,0.013095734,0.029655436,-0.039865974,-0.03383718,0.055423353,-0.01788118,-0.0036282996,0.013965714,0.022643901,0.044852316,-0.0058321953,-0.051062696,0.028985672,-0.0024768657,-0.028834963,0.004761078,0.0035518615,-0.008811628,-0.0034736118,-0.025859192,0.010378706,-0.02351878,-0.006696112,-0.0019778034,0.04109436,0.012416695,-0.01891385,0.05571273,0.014874077,0.06905021,-0.024601644,-0.0025434466,-0.024540534,-0.009833933,0.046095118,-0.026911441,-0.10610374,0.017276824,-0.0027672346,0.018066762,0.021862451,-0.023904681,-0.05919109,-0.057755906,-0.056045704,-0.00010561598,0.06692962,0.013720391,-0.016343944,0.04751201,-0.017452035,0.02185465,-0.016694373,0.02218016,-0.029084014,0.024143033,0.039014176,0.014441846,0.005524309,0.04565609,0.05976481,-0.019394033,-0.006606851,-0.01680277,-0.035577577,0.037159942,0.0087543195,0.04955155,0.026881376,-0.048321903,-0.066481516,-0.05099769,0.09334271,0.04100048,0.06229792,0.060043927,-0.03806982,0.027538583,0.04776652,0.04882444,0.02036539,-0.03160759,-0.010791741,0.028339425,0.04269986,0.06964736,0.033520304,0.036427956,-0.07252985,0.0704444,0.03866706,0.042193796,-0.022036819,-0.0859218,-0.013820606,-0.0133441705,-0.06742801,-0.0037900724,0.013145502,0.020142635,-0.013436939,-0.057451542,-0.049799114,0.047409568,-0.027973544,0.087986864,0.07430382,0.02945365,0.055440724,-0.08573074,0.030659335,-0.006103057,-0.057259526,0.04378666,0.028873296,0.054075092,-0.016962232,0.051542513,0.023910215,-0.01802692,-0.050420567,-0.028296137,0.03821086,0.04377393,0.028729096,0.00059862155,0.02375575,0.031863987,0.019411314,-0.008247512,-0.042723566,0.0042644907,-0.0095369285,-0.025852157,0.023693845,0.029922975,-0.03730577,-0.0035926115,-0.0022976543,0.009540402,-0.03757827,-0.07882817,-0.012985662,-0.029056285,0.031345528,-0.010956494,0.051457215,0.012373126,0.0014621579,-0.016241176,0.0067381184,-0.020702476,-0.042391162,-0.022468392,0.05651403,0.0632009,0.05126211,-0.061079178,-0.033285476,-0.0072843414,-0.06384826,-0.0009890749,0.033186693,0.039790418,0.09992374,-0.03329712,-0.010995495,0.060811833,-0.05529335,-0.0911726,-0.013949114,-0.0492145,0.017376771,0.046489004,0.037495542,0.022033717,-0.035290956,0.023317197,0.044282414,0.08376948,-0.00029538557,0.048132036,-0.032965545,-0.10008805,0.03341498,-0.04532654,-0.012223024,0.057257477,-0.014542051,-0.019875584,0.0413429,0.0771476,-0.0018718236,0.03681974,0.003494363,-0.059734672,-0.011114027,0.018737124,-0.043695986,0.032280188,-0.01467366,0.04017373,0.009961184,0.0011346794,0.062287614,-0.009765207,-0.042423755,-0.007372865,0.004790858,-0.04713195,0.038455848,-0.061550844,-0.013105196,0.0687694,-0.0755071,0.00069435884,0.017233197,-0.045692816,-0.020651624,0.057155922,0.017908586,-0.010446719,-0.021218281,0.01876619,0.018266045,-0.024347631,-0.0063842773,-0.074186236,0.042735644,-0.027008057,-0.036703646,0.00313243,0.013678371,0.07321296,0.016818296,-0.0013037024,-0.013540842,-0.05548312,-0.024350755,-0.0037897942,-0.04118693,0.02155674,0.030767668,0.03843271,-0.048933968,0.08102319,0.0113296835,-0.0072092703,-0.020330286,-0.02208107,-0.056281492,0.045967758,-0.026911017,-0.017320575,0.052927982,-0.010364756,0.04145444,-0.044585887,0.0054588085,-0.02287206,-0.0012152793,-0.025864283,-0.021286216,-0.02729976,0.023732109,-0.048735846,-0.00906058,0.014864398,-0.064151905,-0.090297684,0.0025263743,-0.058617752,0.018036406,0.042234927,-0.05006936,0.012207727,0.07702025,0.08866589,0.024501847,0.017744191,0.027970986,-0.025882442,0.08128176,0.011790023,-0.098444924,-0.0023064227,-0.03597411,0.007862953,-0.06276703,0.005948607,-0.029100219,-0.009370422,0.09772771,-0.07843755,0.0374698,0.025911156,0.0020977592
🏆,-0.0061954795,-0.055241037,-0.02650376,0.20921604,-0.026404243,-0.052101463,-0.05838727,0.26888052,0.06949785,0.09187957,0.06779194,-0.023393318,0.10748299,0.12038691,-0.31043252,0.12299608,0.26407722,-0.13133636,0.01005739,-0.11184713,-0.036265105,0.120178595,-0.25864157,-0.17229033,-0.13193926,0.0058095637,0.11647427,0.06549244,0.07591582,-0.092150636,0.19729182,0.019561745,0.15374438,-0.10123975,0.08358912,0.0784982,-0.11773614,0.14260864,-0.103570364,-0.25312495,-0.057198647,0.29477453,0.06880538,0.014949376,0.012663388,-0.122573175,-0.31968072,-0.019572834,-0.3032294,0.45107725,-0.035368454,0.040683653,0.18522166,-0.15017563,0.23268056,-0.23776211,0.11943887,-0.14839886,0.02945842,0.003482403,0.075932465,0.009571774,0.0015715588,-0.021824883,-0.055487387,-0.0362124,-0.045357656,-0.08101774,0.21791986,0.14204907,0.154329,0.1467405,-0.15747726,-0.051421057,-0.19446743,0.23037586,0.10878072,0.028676767,0.17431729,-0.03265073,0.13976327,0.3729054,0.18810113,0.17032091,-0.26793018,0.060633566,0.031877555,-0.07977014,0.24970262,0.031372696,0.046069,-0.30991518,0.3331563,-0.05558066,0.3125317,0.13841751,-0.34368247,0.05099253,0.051305138,-0.34359762,0.0789083,0.17515166,0.07105469,0.10132012,-0.3028074,-0.4049395,0.11712758,-0.06405061,0.43824002,0.23006071,-0.0038071936,0.25621247,-0.38221267,0.26008072,0.19707395,-0.18114473,0.18386178,0.17998517,0.25558272,-0.19198465,0.18995886,0.18682279,-0.04616043,-0.23669316,-0.066601336,-0.008811983,0.10825616,0.27936175,-0.09181971,0.013159427,0.38574138,0.20130664,-0.0050153453,-0.27814746,-0.0006048832,0.032422874,-0.093870886,-0.10632694,0.42326775,-0.22999734,0.15682806,-0.05667157,0.15694776,-0.016731305,-0.22844017,-0.118054226,-0.21770425,0.15463693,-0.023512008,0.04186694,0.21901855,0.13919279,-0.041388188,-0.012198102,-0.25393882,-0.10815056,-0.13558401,0.4837804,0.16760503,0.20861089,-0.046007868,-0.11998209,-0.13086258,0.041397035,0.06545801,0.1895342,0.015116213,0.6015973,-0.13635187,0.12183785,0.43184382,-0.31593803,-0.2703515,0.012423258,-0.18994762,-0.13391116,0.11767705,0.14972168,0.0888774,-0.23816955,-0.06779079,0.04938906,0.08837774,0.07588354,0.26104984,0.017878048,-0.2529531,-0.15870185,0.0015284444,-0.1714811,0.17032216,-0.33387595,-0.0715789,0.319934,0.4775307,-0.07747767,0.17103194,0.018665314,-0.09792806,0.06765832,0.28767306,0.06271972,-0.092294075,0.016563527,0.21643947,0.07901423,0.13326208,0.25690693,-0.21505891,-0.22894059,-0.012440554,-0.0074117044,-0.16085981,0.29253307,-0.48630795,-0.041235898,0.18922293,-0.3925552,0.082898,0.11597785,-0.05443006,-0.027090093,0.27430037,0.009470679,0.09028809,-0.028681956,0.08005264,0.23556592,0.06820844,0.035579428,-0.25737205,0.04130628,-0.2240141,-0.18785162,-0.11572647,0.012931827,-0.005157556,-0.05672664,-0.18685333,-0.08971411,-0.28564832,-0.22388302,0.17351463,-0.113917045,0.11200907,-0.057324257,0.18611465,-0.15330642,0.3290759,0.033250775,-0.169024,0.10854554,0.01124451,-0.38568547,0.24614647,0.05751156,-0.21861078,0.034385446,-0.15868756,0.12139312,-0.2840535,0.20162903,-0.32452855,-0.14776663,-0.3097957,-0.17773172,-0.09338698,0.122399345,-0.34823155,-0.040523797,0.1518948,-0.17879705,-0.57562786,0.12232367,-0.23520999,-0.15799052,-0.031439085,-0.14259507,0.19442536,0.39597806,0.16889818,0.14459354,0.1542257,0.142445,-0.23233898,0.38642386,0.14301124,-0.4663194,-0.16293383,-0.16177611,0.055643532,-0.17315012,-0.1335113,-0.09156329,-0.06131197,0.39220545,-0.3014788,0.07714425,0.13024436,0.11874386
回顧,-0.013606431,0.025365852,-0.046670306,0.108611725,0.003388017,0.00729277,-0.017945228,0.17451414,-0.02419275,-0.06529683,0.038856734,0.056851484,0.19252466,-0.005572505,-0.2483993,0.037932225,0.045430053,-0.094688416,0.016787948,-0.0790343,-0.038242117,0.06528774,-0.13403617,-0.098346,-0.18776166,0.0060256096,-0.115147814,0.06878018,0.031803254,-0.09974589,0.0945218,-0.054884627,0.0769383,-0.15691008,0.104187764,0.004536145,-0.0066368785,0.09639265,-0.054261897,-0.19257669,-0.015319064,0.090346485,0.061621703,0.08905024,-0.005479731,-0.08706284,-0.12034651,0.012576278,-0.20857137,0.29929692,0.0015667713,-0.058854606,0.078142434,-0.15342666,-0.020189764,-0.04592694,0.18772225,-0.13835928,0.021868784,-0.0261481,0.05699193,0.0093686525,0.006596578,0.025941793,-0.056680214,-0.11669311,0.0062868716,0.0031866457,0.016336022,0.034142416,0.13971688,0.12857512,-0.18039633,-0.0670615,-0.1258583,0.19612098,0.09061746,0.023233648,0.13642403,0.049790513,0.14579803,0.2282024,0.16520077,0.08201621,-0.08250088,0.032067064,-0.023131056,0.0675999,0.16701132,0.13396229,0.09891823,-0.21124512,0.18297432,-0.038876876,0.2913758,0.05489048,-0.16575521,0.06319996,-0.06640115,-0.27144092,0.010910538,0.13059093,0.15125251,0.018921772,-0.22375043,-0.23537543,0.024576632,-0.094009414,0.2603609,0.0756489,0.060572263,0.17052512,-0.3049485,0.1661976,0.07751332,-0.13735332,0.1357326,-0.010764192,0.103017904,0.013549985,0.122049496,0.034513947,-0.050658513,-0.16752578,-0.10940022,0.0016547631,0.11135629,0.20761807,0.051808305,0.035053704,0.19914174,0.08530764,0.028680438,-0.1546602,-0.16114742,-0.049709793,-0.08154481,0.050786044,0.23330978,-0.06143373,0.020108417,-0.004650619,0.102614075,-0.11356338,-0.138618,-0.108848445,-0.09984166,0.11943407,0.056643322,0.03778899,0.043657355,-0.044010058,-0.04885444,-0.09433974,-0.055001713,-0.12656474,-0.10784172,0.14204466,0.15928401,0.09093375,-0.09013729,-0.06023383,-0.087771244,-0.0478986,-0.03401828,0.028906237,0.069221094,0.28015113,-0.0676407,-0.0006320084,0.21398318,-0.11749601,-0.2288014,-0.09319229,-0.0865289,-0.083225906,0.191514,0.10701943,0.03374604,-0.15419267,-0.11435166,0.103199854,0.0031995876,0.118639864,0.17333193,-0.1814477,-0.20840962,-0.028423207,-0.03682668,-0.112467356,0.06719775,-0.09239125,-0.12370635,0.17760977,0.28776744,0.07147749,0.049064342,0.0030238554,-0.06636033,0.03622251,0.14228806,-0.038506024,-0.003972889,-0.08366687,0.09134786,-0.007785127,0.13024968,0.09643588,-0.052735455,-0.17980692,0.019846246,0.12766084,-0.08783305,0.08646242,-0.26970494,-0.06488439,0.15084516,-0.18546906,0.09104685,0.046309747,-0.12250767,-0.014806356,0.18010566,0.019053968,-0.088786036,-0.13215753,-0.014262469,0.18620114,-0.013315126,0.049767356,-0.23580575,0.041711807,-0.16279191,-0.080238655,0.0046634697,0.091329865,0.12294463,0.020127738,0.032361127,-0.041390922,-0.21277755,-0.025773788,0.10649792,-0.014354169,0.02572076,0.030186376,0.11172724,-0.10981846,0.22714958,-0.026004497,-0.090029076,0.030125361,-0.010162704,-0.18992087,0.0823892,0.0055122725,-0.028695088,0.099185295,-0.09803657,0.08101054,-0.19036406,0.14511484,-0.07660152,-0.015463057,-0.14263995,-0.17329171,-0.15876271,0.053835835,-0.2420068,0.039956182,0.062113598,-0.13896231,-0.22470191,0.024980871,-0.14791761,0.03457693,0.049715336,-0.20884341,-0.028602518,0.11433842,0.11541704,0.01116859,0.0945203,0.14894591,-0.08132448,0.2518101,0.11227391,-0.34323183,-0.1589972,-0.090092875,-0.025114689,-0.10176145,-0.034605894,-0.052779175,-0.09982917,0.32818386,-0.1623612,0.0073468457,0.033383414,0.09697287
你,-0.076426096,0.27866855,-0.26144964,0.723129,0.7327526,-0.24840032,0.06145269,-0.7122752,-0.5519145,0.05564215,-0.6721436,0.32974565,1.0600222,-1.4331307,-0.6609096,1.3226244,-0.6311411,0.17393564,0.007477464,0.042667627,0.24327329,-0.2616347,0.38623485,1.2592916,0.30698487,-0.860105,-1.1560146,0.04715618,-0.5636492,-0.029227559,1.1694589,-0.042809863,-0.12542763,-0.31504518,0.001501381,-0.97306937,-0.6060885,0.5607719,-0.7906484,-0.58384264,0.030461209,-1.4923556,0.5763579,0.1338392,-0.35007262,0.14515956,1.4309644,-1.3249844,-0.10191654,1.0181019,-0.17510462,-1.2307668,1.7398194,0.17158969,-0.7376051,0.96186,-0.22040553,-0.14509477,0.20430891,0.46819448,-0.6928948,-0.60813797,0.3081552,0.8680102,0.022575129,-1.2172084,-1.1401716,-0.73273754,-1.287888,0.6809178,-0.28868952,0.3408593,0.28747284,0.210132,-0.43177348,-0.45158654,0.096751004,0.28315672,1.3166292,0.475923,0.6807683,0.32707945,1.394445,-0.75868315,1.3366687,0.06060924,0.15840995,1.6327362,0.123001456,-0.15737933,0.8912397,-0.41968837,-0.0815365,0.5926106,0.51515144,-0.37160602,0.7178029,-0.20073879,-0.36719152,-0.23205844,-0.5167457,-0.8535931,0.0599497,-0.2698157,0.5500278,0.44612837,0.015813936,1.2963148,0.77551556,-0.34427804,1.5138204,1.4487642,-1.243131,0.26012972,0.42197186,-1.653373,0.35453466,0.81424016,-0.65238583,1.9647268,0.018904703,-0.17665833,0.25387797,1.338663,0.32962906,0.9086068,0.78428787,-0.6825399,0.97458243,-0.06595251,-0.09865473,-0.5997586,-0.041948535,0.08921061,0.20642334,0.75991464,0.73753524,0.79487073,-0.988549,-1.1435989,-1.1319714,-0.44418356,-0.70964897,-0.25954318,0.009230528,-1.2660753,-1.011088,0.2501607,0.90994126,2.0305421,0.8443679,-0.44359598,-1.0686874,-0.43167394,1.5389711,-0.16937664,0.13208573,-0.4160911,1.8567141,-0.5784139,-0.30985856,0.9853673,0.68235785,0.022368541,-0.56012994,-0.88577974,-0.44000712,-0.617412,0.23706764,-0.066711605,-0.0372288,-0.19479814,-0.17023243,-1.3262111,0.51971805,1.4690012,-0.023118667,-0.3428995,-0.64977187,1.7439762,0.89615023,1.0290877,0.37066546,-0.1752706,0.86661965,-0.27634495,-0.4818501,0.94995064,1.0565598,-1.0927017,-0.20551497,2.0726175,-0.60539246,0.5908775,0.22388218,0.006427406,-1.0921881,0.15503089,-0.14783114,0.41944528,-0.33227214,-0.9757903,1.0807701,0.18015923,-0.68109673,-0.63753814,-0.23108448,0.28359714,-0.36046603,-0.4689756,-1.0484108,-0.523078,-0.80940247,0.30092663,0.31226012,0.5451837,0.23794562,0.22955492,-0.038936596,-0.046676867,-0.85272217,-0.06386332,0.17530175,1.0907226,-0.737674,-0.1969611,-0.46946433,0.084895305,-1.1251279,0.4350799,-0.15210123,0.016305627,-0.59663653,0.40791747,0.6458039,-0.18244208,0.856432,1.0548097,0.7227392,0.1859811,0.12009404,0.8188345,-1.1701688,-0.7974186,-1.0022175,0.44880164,0.6653638,-0.6070502,0.18774748,-0.5498085,-1.9910946,0.4571382,0.08419675,0.76108056,-0.09231907,-0.7274712,0.9832235,-0.32181436,0.7962021,-0.21911275,-1.0407989,-0.10122112,0.8572558,0.7342091,-0.4439549,0.08800433,-0.6760215,0.024299122,-0.28434438,-0.52361673,-1.4546239,-0.9908799,-0.14859536,0.7890429,0.25455433,-0.95570785,0.3402771,0.09557095,-1.6531231,-0.5055931,1.0040072,0.44181374,-0.57289225,-0.19040345,-0.70075065,0.010214279,0.522765,0.29912433,-0.19684951,1.0062238,-0.17338297,-0.2166112,1.8856573,0.8824768,-0.63024634,-0.77891684,-0.15131073,0.38848597,0.61077935,-0.92721486
和,-0.33996195,0.4045039,-0.056733202,0.0013067119,0.3386065,0.4713796,-0.43626812,-0.221817,0.4457135,-0.018833563,-0.9861159,-0.3148158,0.6786223,0.43222874,-0.21679363,-0.460682,1.522352,0.33616772,-0.18350849,-0.66356426,-0.69573313,1.342998,-1.0739188,-1.2413361,-2.4245913,-1.3909463,-0.12370308,0.4224246,0.18423809,-0.11428277,0.8765267,0.32125226,0.30083272,-1.3867408,-0.2660832,-1.0016468,-1.135483,-0.075410835,-0.49228975,-1.0083574,0.34230214,0.5736679,0.5400837,-0.2267655,-0.22923079,-0.34710008,-0.41010863,0.874076,-0.20721121,0.34867367,0.21898465,-1.7044251,0.9423427,-0.46006426,-0.7466223,-0.43280166,1.6668961,0.9169364,0.69010085,0.45487994,1.1410496,0.3202314,0.49151346,-0.6135105,0.5628921,-0.09176572,-0.2091741,-0.6638167,-0.4582402,1.2923882,0.20414956,-0.4592862,-1.5907364,-0.48535082,-0.038180556,-0.5771453,0.10860771,0.28129214,-0.35283244,1.3538353,0.80172247,0.5131822,0.1284094,-0.292455,-1.6946934,-0.43765408,-0.86473066,0.4485524,0.8461198,0.3776928,-0.9002982,-0.47752306,0.55225456,0.41690683,0.9114804,0.74208856,0.18125011,0.36450094,0.32174155,-0.58955145,0.23285066,0.48839733,0.022647133,-0.14592433,-1.062056,-0.08584156,-0.72842675,0.8121391,0.21244992,0.57327235,-0.064437784,0.9508329,-0.48568127,-1.5508009,0.55342305,0.44946963,1.5918756,-0.34826228,-0.7330128,0.195081,0.3571285,0.6632757,-0.15615143,-0.8833593,-0.39668167,-0.39820066,0.25300688,0.30353335,-1.7069254,-0.0715618,0.374115,-0.098707035,-0.7513756,-0.43479168,0.06263217,0.2110247,-0.1206738,-0.13443919,1.8843429,-0.1608141,0.8629122,0.5647164,0.0082848035,0.7953806,-1.1762744,-0.5737578,-1.8194374,-0.23763727,-0.28993732,-0.13701949,-0.70674187,1.0998911,0.02864367,-0.019439442,-0.8143554,-0.5513191,-0.4522703,1.1822294,-0.5072498,-0.36107776,0.18413426,-0.81811607,-0.87886304,1.0411668,-0.59295076,0.30037075,-0.4436325,0.4593598,-1.4276704,0.14280054,1.5447918,0.1427688,-0.19798867,0.8138588,-0.1476218,-2.2950435,-0.6248919,-1.7338469,0.66089976,-0.8602628,0.41142198,-0.86721027,0.6349163,0.5342273,0.095755935,0.12886418,-0.53202015,0.88454664,0.101399146,0.04790782,-0.9475999,-0.6558884,-1.3969462,1.0848026,-0.8093296,-0.17043239,0.26161495,1.4837232,-0.22972094,-0.087728135,0.11038793,-0.892675,-0.87684274,0.55623496,0.18762273,-0.6862488,-0.23543774,0.007421412,0.44369122,0.59003896,0.28353718,-1.308414,0.45103785,-0.68059,0.63064224,0.49318954,0.29734972,1.1419524,-0.07650493,-1.3430533,1.8323449,0.6061113,0.5771158,-1.1182519,-0.053813882,-0.38430008,0.054107685,0.31150037,0.99290395,-0.123186864,0.87990326,-0.182468,-0.6707046,-0.54744893,-0.48881796,0.18544044,-0.443255,0.7202285,1.1566349,-0.32103384,-0.36920455,0.4035525,0.6097156,-0.5702767,-0.388672,-0.21279691,-0.8626308,-0.671622,0.9400868,-0.084607944,0.39513022,-0.46779913,-0.4176517,0.4236295,0.30940214,0.45865983,-0.11980997,-0.09478202,-0.35264724,0.5266699,-0.37488544,0.098716624,0.5997009,0.19285583,-0.7614858,0.2672678,1.2184848,-0.4297077,-0.71161944,0.2572077,1.4497043,0.56310177,-1.1331747,1.3090454,-0.6359571,-0.22409731,0.31910554,1.4546437,-0.6244812,-0.18049353,-0.7473903,0.104011916,-0.043212652,0.42805684,-0.37818444,-1.0004569,0.18596356,-0.06887496,-0.52747446,0.24068542,-0.18308938,0.5425886,-0.3713361,-0.4515169,0.13139246,0.10329193,0.53308505,-0.829728,0.0016255593,0.2770004
直播,0.08126958,0.8498428,0.08502396,1.1365281,0.6620996,0.39431864,0.2725691,-0.06861557,-0.16294153,0.5204592,-0.040724732,-0.29910165,0.36573663,-0.73643684,-2.050674,0.35071743,0.6800541,-0.3458167,0.29967853,-0.51246154,0.29418963,-0.1328171,-0.8668646,0.2810665,-0.8086935,0.8395437,0.062808305,0.06843971,0.040502444,-0.28418684,0.89087635,-0.0441359,0.5965926,-0.17721078,1.392336,0.81603974,-0.51307875,0.8779005,-0.6122494,-0.4122853,-0.8690633,-0.8341626,0.68145347,0.31056386,-0.5924118,-0.5461875,-0.32987592,-0.56251216,-1.0865865,1.3726939,0.03245121,0.2547427,-0.29827774,0.4110428,0.98448116,-0.9659314,0.3612616,0.1720114,0.215458,0.13713239,-0.36960414,1.2201257,0.12202954,-0.10805438,-0.2863014,-1.3303232,0.35546315,-0.2194007,0.8878537,0.4091964,-0.0060776705,0.89687556,-0.23907667,-0.5171701,-0.21133474,0.0047480264,0.45021662,-1.1399812,0.23005374,1.1381623,0.29558143,0.054850347,0.48909584,1.217629,-0.12500797,-0.016605005,0.9913957,-0.12971853,0.45722735,0.07258051,0.8675446,0.38490656,-0.08744036,-1.0489907,0.75963783,0.6124331,0.15236951,1.3264489,-0.32098857,-1.204134,0.72683144,0.27513513,1.2288057,-0.12530111,-0.69550484,0.052203245,0.37306896,0.5566891,1.0507171,0.39198765,0.7327478,0.48781213,-1.1198716,0.7837137,0.020679953,-0.07748691,0.9993086,0.51898986,0.34098232,-0.34664357,0.41964468,0.8303866,-0.029882684,-0.37057576,0.60562986,0.4515977,0.15061948,0.8077494,-0.54636985,0.9592614,1.1596295,0.23714145,-0.16103804,-0.4991356,0.6607926,0.20602022,0.5544875,0.08468939,0.23102888,0.09788343,0.66296595,-1.279858,-0.11347234,0.03190905,-0.43441337,-0.3198785,-0.1310044,0.5756413,0.17631103,-0.21418445,0.88190496,-0.13732061,0.27867085,-0.6658212,-0.11409592,-0.62587905,0.07887729,1.1378703,0.54255766,-0.2424647,0.031929698,0.8594701,-0.32860464,0.63065517,-0.08830783,0.08222579,0.611237,1.5686133,-0.33876368,0.44356275,1.2884862,-1.0962111,-0.43179527,0.28168428,-0.04010995,-0.25385144,0.14223284,-0.4116108,0.0071060904,0.58976626,0.31350973,-0.8991741,0.12473269,0.9145318,0.91076577,-0.62301326,-0.7396031,-0.5005222,-0.77212805,-0.7149966,0.09083348,-0.014818178,-0.7687142,0.6172076,2.0943623,-0.23012473,-0.30880994,0.76585054,0.5839577,0.10639365,0.6804954,-0.28130242,0.18136288,-0.58364993,0.050764643,0.5926885,0.3013642,0.34801704,0.1954389,-0.38379064,-0.7980734,0.04607792,0.15935433,0.37832746,-1.2732707,0.11837121,1.2524775,-0.46315697,0.5506432,1.5680407,-1.1172404,0.2147751,0.45601174,-0.29713967,-0.2740761,-0.20430747,0.32415995,0.68419605,0.21531415,0.3650773,-1.3189703,-0.0709932,-0.7590655,0.4318092,-0.28947306,-0.2731813,0.5095969,-0.20091537,-0.106086254,-0.18993908,-1.1444415,0.5540082,0.4026153,-1.0011253,0.06847513,0.043133974,0.86864275,-0.9935709,-0.41198286,-0.027504101,-0.473743,0.33064553,0.42256862,-0.9827139,-0.16094998,0.04887943,0.25298244,0.4020086,-0.107020296,-0.5489699,-1.5391282,1.3324274,-0.04473724,-0.18490075,-0.7416566,-1.4409628,-0.5744862,-0.30416057,-0.5370277,-0.4587278,-0.33873123,-1.3414776,-1.2690256,0.8589927,-0.958704,0.07971046,-0.5545391,-0.729069,-0.6767379,0.8451325,1.6945275,0.45457542,0.5633362,0.78419995,-1.2634187,0.5954262,1.1391115,-1.3860931,-0.72768086,0.14630832,0.11341661,-0.8367033,0.73938715,-0.66728336,-0.19927014,1.007553,-0.80385166,0.08362962,0.3874147,-0.1918561
一路,-0.13242345,-0.33144775,-0.02800237,0.6900282,0.25630805,0.05186009,-0.63589704,-0.22337876,-0.3249678,0.032170124,-0.09620234,0.061810624,0.5463934,-0.19333488,-0.017067477,0.20105655,0.3197138,-0.45869657,0.18513368,-0.16169678,0.27866134,0.12817225,0.017086264,0.0131330835,-1.0434216,-0.3452007,-0.21092975,0.275773,-0.5383204,0.2670283,0.36586955,0.24687757,0.08854738,0.085201666,0.27238268,0.011740937,-0.37559676,0.13443165,-0.31941566,0.0576339,0.21533456,-0.20006625,0.4179176,0.23622558,0.0024965496,-0.3007532,-0.09555531,-0.067649685,0.093759894,0.31052467,0.0318735,-0.5245889,0.29421481,0.054234494,-0.38416204,0.25709814,0.8185526,0.30931348,0.054157645,0.22264123,0.03558816,0.19922294,0.44974515,-0.15196668,0.30618468,-0.19885914,-0.0019742474,-0.23398668,-0.4156984,0.4185755,-0.31134185,0.111785136,-0.18374427,-0.15678222,-0.035292346,0.07795128,0.17078952,0.11450973,0.31714734,0.5736855,0.4079574,0.11659047,0.009160264,-0.20083627,0.01890164,0.0272186,0.0006599587,0.39321816,0.20712475,0.36121428,-0.11888979,-0.009372085,0.051246863,0.12563655,0.17125046,0.011679204,0.123855405,-0.13740447,-0.08758598,0.14400488,0.22387514,0.12173352,0.21077222,-0.054785382,-0.2469474,-0.32474256,0.14320078,0.7232434,-0.17767555,-0.23096001,0.15903844,0.33283865,-0.49447334,-0.17631564,0.11702551,-0.2952617,0.44247875,-0.27964246,0.15429015,0.60079664,-0.00028271455,-0.16951619,-0.1497934,-0.11552767,-0.35766816,0.20579208,0.18834294,0.21324262,-0.027715843,0.3435196,-0.07955755,-0.087194934,0.119730145,0.018383402,-0.09854066,0.2322204,-0.13893592,0.45441437,0.094541505,-0.6473662,-0.06664377,-0.31686908,0.012842046,0.13412035,-0.0003851459,-0.37620088,-0.55027145,0.09526383,-0.1821193,0.35161424,-0.38351494,-0.10809008,0.22541401,0.03649612,-0.062152766,-0.5669084,-0.10177166,0.11158585,0.21404311,-0.16865048,-0.20343995,0.14284639,0.061218172,0.13199645,0.08799623,-0.2361429,0.06879936,0.1574045,-0.19519882,-0.421935,0.40724292,0.08420016,0.2438388,-0.20441401,0.024728851,-0.094512925,-0.008977153,-0.37847465,0.03589644,0.37469605,0.04029779,-0.13690302,0.038458068,0.16725124,0.14589801,-0.035098683,0.035350688,0.3185503,0.4361828,0.03610982,0.333803,-0.08821087,-0.3356261,0.055500124,0.2744989,0.20800331,-0.23528832,-0.10137399,-0.14944054,-0.17875032,0.41598296,-0.21213846,0.027270049,0.10905185,0.23657691,0.25813225,-0.04516997,0.11496157,-0.069196574,-0.0056609455,-0.45575303,-0.43083087,-0.13057514,-0.31107888,-0.075230576,-0.08719758,0.14184062,-0.07493769,0.10336398,-0.16402963,-0.0592698,-0.13059023,0.5357105,-0.33335066,0.30837834,0.22000794,-0.25666708,-0.13972484,-0.24844076,-0.11246615,0.2222411,0.07357534,-0.41770795,0.09567597,0.30566686,-0.1231833,0.15836976,0.10017435,0.3012638,-0.28507063,-0.26841697,0.57518965,-0.04559193,-0.24970268,-0.415101,0.09869128,0.10058185,0.12033756,0.1682231,-0.12795888,-0.39176056,0.0013546721,-0.06708121,0.086214095,-0.11409966,-0.16728936,0.026688343,0.038874175,-0.24163981,-0.10792463,-0.36857852,0.2918915,0.16065685,-0.21272986,-0.72156054,-0.14276037,0.06357167,0.09372299,0.3731127,-0.17152248,0.037317745,-0.20672044,-0.123834684,0.42314956,-0.27840614,-0.29261917,-0.04376421,-0.041128784,-0.4098705,-0.50354797,0.077519655,0.21132511,0.0003424201,-0.0833796,-0.11720552,0.19981013,0.14243957,-0.2587085,-0.14174104,-0.07303342,-0.13322161,-0.13677406,0.43819833,0.08556006,0.006066943,-0.101097666,0.1566171,-0.11591541,0.2649745,-0.353239
